{"learner":{"attributes":{"best_iteration":"106","best_score":"19.340982","scikit_learn":"{\"n_estimators\": 200, \"objective\": \"reg:squarederror\", \"max_depth\": 6, \"learning_rate\": 0.05, \"verbosity\": null, \"booster\": \"gbtree\", \"tree_method\": null, \"gamma\": null, \"min_child_weight\": null, \"max_delta_step\": null, \"subsample\": null, \"colsample_bytree\": 0.7, \"colsample_bylevel\": null, \"colsample_bynode\": null, \"reg_alpha\": null, \"reg_lambda\": null, \"scale_pos_weight\": null, \"base_score\": null, \"missing\": NaN, \"num_parallel_tree\": null, \"kwargs\": {}, \"random_state\": 17, \"n_jobs\": null, \"monotone_constraints\": null, \"interaction_constraints\": null, \"importance_type\": \"gain\", \"gpu_id\": null, \"validate_parameters\": null, \"n_features_in_\": 1292, \"evals_result_\": {\"validation_0\": {\"rmse\": [41.318966, 39.671463, 38.119656, 36.655346, 35.271427, 33.951099, 32.711224, 31.552755, 30.448273, 29.407747, 28.42985, 27.511232, 26.641811, 25.829393, 25.059645, 24.341805, 23.674999, 23.04034, 22.443222, 21.878599, 21.357901, 20.880989, 20.407804, 19.971596, 19.571703, 19.19009, 18.843513, 18.501982, 18.190228, 17.889795, 17.595171, 17.325304, 17.063562, 16.81963, 16.614687, 16.405333, 16.177937, 15.976398, 15.79967, 15.603711, 15.442524, 15.295727, 15.147401, 14.990127, 14.872828, 14.750039, 14.604347, 14.495347, 14.360818, 14.257186, 14.142571, 14.034752, 13.96027, 13.861749, 13.772923, 13.669958, 13.570424, 13.493372, 13.421146, 13.330218, 13.264564, 13.226015, 13.144572, 13.083587, 12.997506, 12.9252, 12.845867, 12.791744, 12.724847, 12.670762, 12.619156, 12.556443, 12.481028, 12.442196, 12.379009, 12.327662, 12.296058, 12.257063, 12.19504, 12.157796, 12.117402, 12.056802, 11.996736, 11.955772, 11.887634, 11.846061, 11.815785, 11.775815, 11.707721, 11.669969, 11.646789, 11.618429, 11.587688, 11.564921, 11.537057, 11.511653, 11.471658, 11.441463, 11.406771, 11.351175, 11.319291, 11.302107, 11.240587, 11.216914, 11.178834, 11.120967, 11.091418, 11.058258, 11.018621, 10.996329, 10.935626, 10.899076, 10.855863, 10.815426, 10.770662, 10.73356, 10.710162]}, \"validation_1\": {\"rmse\": [40.847652, 39.293797, 37.823265, 36.456093, 35.177177, 33.99316, 32.885124, 31.825966, 30.847872, 29.931721, 29.085703, 28.303106, 27.558567, 26.882662, 26.251377, 25.684584, 25.154024, 24.662924, 24.21723, 23.801962, 23.407093, 23.054846, 22.71941, 22.425554, 22.156643, 21.91118, 21.691788, 21.497288, 21.299969, 21.128296, 20.974588, 20.824268, 20.681982, 20.569813, 20.468195, 20.378267, 20.29755, 20.22551, 20.156126, 20.088943, 20.031733, 19.986036, 19.92696, 19.879133, 19.851709, 19.813831, 19.779339, 19.749338, 19.709103, 19.684975, 19.656652, 19.63994, 19.618389, 19.599901, 19.58742, 19.568602, 19.556376, 19.533932, 19.524986, 19.509079, 19.497038, 19.491409, 19.479849, 19.468582, 19.450903, 19.445936, 19.441286, 19.446806, 19.438356, 19.4345, 19.421192, 19.419613, 19.418104, 19.416485, 19.414227, 19.4072, 19.405323, 19.400282, 19.396414, 19.398163, 19.390261, 19.378649, 19.370667, 19.367804, 19.371613, 19.371084, 19.373152, 19.369492, 19.374689, 19.371767, 19.36879, 19.368319, 19.370127, 19.367559, 19.363281, 19.362955, 19.360844, 19.3629, 19.362236, 19.358664, 19.358725, 19.361092, 19.354525, 19.354633, 19.353762, 19.346962, 19.340982, 19.349108, 19.342794, 19.343628, 19.345434, 19.349077, 19.353556, 19.356905, 19.354567, 19.348505, 19.345728]}}, \"best_score\": 19.340982, \"best_iteration\": 106, \"best_ntree_limit\": 107, \"type\": \"XGBRegressor\"}"},"gradient_booster":{"model":{"gbtree_model_param":{"num_trees":"117","size_leaf_vector":"0"},"tree_info":[0,0,0,0,0,0,0,0,0,0,0,0,0,0,0,0,0,0,0,0,0,0,0,0,0,0,0,0,0,0,0,0,0,0,0,0,0,0,0,0,0,0,0,0,0,0,0,0,0,0,0,0,0,0,0,0,0,0,0,0,0,0,0,0,0,0,0,0,0,0,0,0,0,0,0,0,0,0,0,0,0,0,0,0,0,0,0,0,0,0,0,0,0,0,0,0,0,0,0,0,0,0,0,0,0,0,0,0,0,0,0,0,0,0,0,0,0],"trees":[{"base_weights":[3.7777664E1,3.522994E1,4.124543E1,3.3050686E1,3.8167633E1,3.8829018E1,4.8970078E1,3.225931E1,3.707794E1,3.7314056E1,4.892793E1,4.2371094E1,3.6040363E1,4.644705E1,7.2375E1,3.1940683E1,4.377778E1,3.562969E1,5.738095E1,3.6809692E1,5.327381E1,5.5661972E1,3.607317E1,5.8255814E1,4.1521664E1,3.1989817E1,3.899018E1,5.709127E1,4.337029E1,5.1886364E1,8.207692E1,3.8029167E1,3.146675E1,5.6775E1,3.2096153E1,5.353846E1,3.4758118E1,6.8666664E1,2.5E1,4.860274E1,3.6135235E1,6.0683334E1,3.2076923E1,3E1,5.937705E1,2.1076923E1,4.1551723E1,3.8473682E1,7.096E1,4.0335907E1,5.280128E1,3.0782259E1,4.0474136E1,4.395617E1,3.457183E1,6.2957893E1,3.7890625E1,4.090814E1,5.5971832E1,5.625E1,2.58E1,8.45946E1,2.3666666E1,2.588E1,4.0796875E1,3.0479385E1,3.4656837E1,6.510714E1,3.2E1,3.4020832E1,6E0,2.1625E1,6.095E1,4.288889E1,3.2534554E1,4.811111E1,8.528571E1,3.9333332E1,6.1310345E1,3.568557E1,5.1319443E1,6.532692E1,2.44E1,6.461224E1,3.5076923E1,2.3545454E1,5E0,3.0892857E1,4.828125E1,2.8666666E1,6.02E1,2.0375E1,7.6931816E1,3.8718166E1,4.78097E1,2.9825E1,5.9694916E1,3.1041958E1,7.0833335E0,4.6692307E1,2.6325E1,3.1446808E1,4.6032444E1,3.9559376E1,3.032398E1,6.594886E1,2.21875E1,2.7522728E1,5.518182E1,3.5921467E1,4.568063E1,1.70625E1,5.9960938E1,5.9866665E1,2.8625E1,4.0375E1,8.730882E1],"categories":[],"categories_nodes":[],"categories_segments":[],"categories_sizes":[],"default_left":[true,true,true,true,true,true,true,true,true,true,true,true,true,true,true,true,true,true,true,true,true,true,true,true,true,true,true,true,true,true,true,true,true,true,true,true,true,true,false,true,true,true,false,false,true,true,true,true,true,true,true,true,true,true,true,true,true,true,true,true,false,true,false,false,false,false,false,false,false,false,false,false,false,false,false,false,false,false,false,false,false,false,false,false,false,false,false,false,false,false,false,false,false,false,false,false,false,false,false,false,false,false,false,false,false,false,false,false,false,false,false,false,false,false,false,false,false],"id":0,"left_children":[1,3,5,7,9,11,13,15,17,19,21,23,25,27,29,31,33,35,37,39,41,43,45,47,49,51,53,55,57,59,61,63,65,67,69,71,73,75,-1,77,79,81,-1,-1,83,85,87,89,91,93,95,97,99,101,103,105,107,109,111,113,-1,115,-1,-1,-1,-1,-1,-1,-1,-1,-1,-1,-1,-1,-1,-1,-1,-1,-1,-1,-1,-1,-1,-1,-1,-1,-1,-1,-1,-1,-1,-1,-1,-1,-1,-1,-1,-1,-1,-1,-1,-1,-1,-1,-1,-1,-1,-1,-1,-1,-1,-1,-1,-1,-1,-1,-1],"loss_changes":[5.4595E4,2.21955E4,4.8142E4,5.53175E3,1.244725E4,1.86925E4,3.4135875E4,5.10525E3,7.952875E3,9.6625E3,7.60075E3,9.670875E3,1.251725E4,1.638775E4,7.6680625E3,3.7895E3,5.0100312E3,3.1339375E3,5.957617E3,9.403125E3,4.6499375E3,4.9875625E3,2.4926875E3,8.0764844E3,9.292375E3,3.7845312E3,1.30055625E4,1.1807469E4,1.17034375E4,1.0530391E3,3.7332188E3,2.9792188E3,4.01175E3,2.0451445E3,1.1017695E3,1.7568164E3,4.1730312E3,1.0210156E3,0E0,6.1872812E3,7.256375E3,3.4605703E3,0E0,0E0,5.4937812E3,3.981958E2,5.8859766E2,2.3226035E3,5.984617E3,7.543375E3,1.0574016E4,2.4512188E3,3.8737656E3,6.5520625E3,6.3215312E3,1.0121344E4,4.217992E3,7.4264375E3,9.9970625E3,8.4703125E1,0E0,9.1571875E2,0E0,0E0,0E0,0E0,0E0,0E0,0E0,0E0,0E0,0E0,0E0,0E0,0E0,0E0,0E0,0E0,0E0,0E0,0E0,0E0,0E0,0E0,0E0,0E0,0E0,0E0,0E0,0E0,0E0,0E0,0E0,0E0,0E0,0E0,0E0,0E0,0E0,0E0,0E0,0E0,0E0,0E0,0E0,0E0,0E0,0E0,0E0,0E0,0E0,0E0,0E0,0E0,0E0,0E0,0E0],"parents":[2147483647,0,0,1,1,2,2,3,3,4,4,5,5,6,6,7,7,8,8,9,9,10,10,11,11,12,12,13,13,14,14,15,15,16,16,17,17,18,18,19,19,20,20,21,21,22,22,23,23,24,24,25,25,26,26,27,27,28,28,29,29,30,30,31,31,32,32,33,33,34,34,35,35,36,36,37,37,39,39,40,40,41,41,44,44,45,45,46,46,47,47,48,48,49,49,50,50,51,51,52,52,53,53,54,54,55,55,56,56,57,57,58,58,59,59,61,61],"right_children":[2,4,6,8,10,12,14,16,18,20,22,24,26,28,30,32,34,36,38,40,42,44,46,48,50,52,54,56,58,60,62,64,66,68,70,72,74,76,-1,78,80,82,-1,-1,84,86,88,90,92,94,96,98,100,102,104,106,108,110,112,114,-1,116,-1,-1,-1,-1,-1,-1,-1,-1,-1,-1,-1,-1,-1,-1,-1,-1,-1,-1,-1,-1,-1,-1,-1,-1,-1,-1,-1,-1,-1,-1,-1,-1,-1,-1,-1,-1,-1,-1,-1,-1,-1,-1,-1,-1,-1,-1,-1,-1,-1,-1,-1,-1,-1,-1,-1],"split_conditions":[2.2639212E-1,1.9826493E-1,3.8681245E-1,3.4587818E-1,5.460727E-1,9.903854E-2,5.5795467E-1,7.249678E-1,4.8937428E-1,4.7859496E-1,1.908375E-1,-1.1230025E-1,8.39868E-2,-3.487909E-2,2.5674278E-1,-1.3504851E-1,2.289299E-1,-1.615381E-1,1.710079E-1,6.617096E-2,1.7973652E-1,-3.8594063E-2,-1.6583307E-2,7.060427E-2,3.9308083E-1,3.0352628E-1,1.15560174E-1,1.8708506E-1,5.32108E-1,2.3821217E-1,4.4807994E-1,4.7575034E-2,2.8231764E-1,2.2895E-1,5.1943433E-1,8.594915E-2,5.6288484E-3,2.3868833E-1,1.25E0,2.5533783E-1,6.355126E-1,9.135737E-2,1.6038462E0,1.5E0,2.4753703E-1,1.596164E-1,1.4303547E-1,4.5043033E-1,-1.1734992E-1,2.98361E-1,-3.2742843E-2,8.830959E-1,2.8415477E-1,3.222164E-2,1.6787067E-1,6.1413354E-1,2.7336532E-1,5.6918494E-2,-3.0902792E-2,4.061973E-1,1.29E0,-2.8499966E-3,1.1833333E0,1.294E0,2.0398438E0,1.5239693E0,1.7328418E0,3.255357E0,1.6E0,1.7010416E0,3E-1,1.0812501E0,3.0475001E0,2.1444445E0,1.6267277E0,2.4055555E0,4.2642856E0,1.9666666E0,3.0655172E0,1.7842785E0,2.565972E0,3.266346E0,1.22E0,3.2306123E0,1.7538462E0,1.1772727E0,2.5E-1,1.5446428E0,2.4140625E0,1.4333333E0,3.01E0,1.0187501E0,3.8465908E0,1.9359083E0,2.390485E0,1.49125E0,2.9847457E0,1.5520979E0,3.541667E-1,2.3346155E0,1.3162501E0,1.5723404E0,2.3016222E0,1.9779688E0,1.516199E0,3.2974432E0,1.109375E0,1.3761364E0,2.7590911E0,1.7960733E0,2.2840316E0,8.5312504E-1,2.9980469E0,2.9933333E0,1.43125E0,2.01875E0,4.3654413E0],"split_indices":[637,638,224,501,159,122,417,367,845,275,800,494,638,920,668,788,621,1098,275,409,417,1105,959,1094,780,1264,346,32,638,1091,103,419,399,943,114,739,641,540,0,708,868,449,0,0,497,28,190,362,25,361,897,851,604,251,824,312,1107,335,822,508,0,1270,0,0,0,0,0,0,0,0,0,0,0,0,0,0,0,0,0,0,0,0,0,0,0,0,0,0,0,0,0,0,0,0,0,0,0,0,0,0,0,0,0,0,0,0,0,0,0,0,0,0,0,0,0,0,0],"split_type":[0,0,0,0,0,0,0,0,0,0,0,0,0,0,0,0,0,0,0,0,0,0,0,0,0,0,0,0,0,0,0,0,0,0,0,0,0,0,0,0,0,0,0,0,0,0,0,0,0,0,0,0,0,0,0,0,0,0,0,0,0,0,0,0,0,0,0,0,0,0,0,0,0,0,0,0,0,0,0,0,0,0,0,0,0,0,0,0,0,0,0,0,0,0,0,0,0,0,0,0,0,0,0,0,0,0,0,0,0,0,0,0,0,0,0,0,0],"sum_hessian":[6.343E3,3.663E3,2.68E3,2.11E3,1.553E3,2.046E3,6.34E2,1.771E3,3.39E2,1.443E3,1.1E2,8.95E2,1.151E3,5.75E2,5.9E1,1.727E3,4.4E1,3.19E2,2E1,1.402E3,4.1E1,7E1,4E1,4.2E1,8.53E2,4.9E2,6.61E2,1.25E2,4.5E2,2.1E1,3.8E1,1.19E2,1.608E3,1.9E1,2.5E1,1.2E1,3.07E2,1.4E1,6E0,7.2E1,1.33E3,2.9E1,1.2E1,1E1,6E1,1.2E1,2.8E1,1.8E1,2.4E1,7.76E2,7.7E1,4.33E2,5.7E1,3.07E2,3.54E2,9.4E1,3.1E1,3.8E2,7E1,1.7E1,4E0,3.6E1,2E0,2.4E1,9.5E1,1.236E3,3.72E2,1.3E1,6E0,2.3E1,2E0,3E0,9E0,6.2E1,2.45E2,8E0,6E0,4.4E1,2.8E1,1.295E3,3.5E1,2.5E1,4E0,4.8E1,1.2E1,1E1,2E0,1.3E1,1.5E1,1.4E1,4E0,3E0,2.1E1,6.43E2,1.33E2,1.9E1,5.8E1,4.28E2,5E0,3.8E1,1.9E1,4.6E1,2.61E2,1.59E2,1.95E2,8.7E1,7E0,2.1E1,1E1,1.9E2,1.9E2,7E0,6.3E1,1.4E1,3E0,3E0,3.3E1],"tree_param":{"num_deleted":"0","num_feature":"1292","num_nodes":"117","size_leaf_vector":"0"}},{"base_weights":[3.5907288E1,3.326625E1,3.9528973E1,3.1664225E1,3.6686337E1,3.6723E1,4.4238342E1,3.644509E1,3.0895796E1,3.6127144E1,6.076274E1,3.543473E1,4.3617687E1,4.2606903E1,6.4192955E1,3.2652157E1,4.2305065E1,3.8565754E1,3.0403883E1,3.3722366E1,4.0520695E1,3.0213799E1,7.605816E1,3.3478806E1,3.9430946E1,3.924242E1,5.3323536E1,4.69618E1,3.7147114E1,7.643161E1,4.514602E1,2.9815153E1,4.224189E1,3.3834152E1,4.9655556E1,5.754548E1,3.5896614E1,4.2972687E1,3.0157022E1,3.9048615E1,3.1953266E1,3.9368427E1,6.409704E1,3.734298E1,3.1596123E1,3.220951E1,4.2139847E1,6.60205E1,3.7641018E1,5.988842E1,3.5021057E1,5.2487312E1,3.954863E1,4.320798E1,3.3222313E1,9.7583E0,7.944596E1,7.221687E1,3.2590202E1,1.9989048E1,3.1485292E1,5.0208298E1,2.4166855E1,4.5360325E1,2.5784443E1,3.8813087E1,6.2898426E1,6.2183773E1,1.981048E1,3.02491E1,4.3587524E1,2.8115028E1,5.8798462E1,5.246751E1,3.001903E1,3.5167667E1,4.87857E1,3.109879E1,4.397954E1,3.6972374E1,4.8410236E1,2.3745977E1,7.1047554E1,4.8490826E1,3.4951385E1,4.1354504E1,3.0699232E1,1.7242367E1,3.4460995E1,4.4278175E1,3.0311466E1,2.7662409E1,8.058914E1,3.399937E1,4.8713737E1,6.463965E1,2.7894253E1,3.928979E1,1.965113E1,3.940306E1,5.6275734E1,5.4660072E1,3.6605347E1,2.6622087E1,4.6398865E1,6.239203E1,3.2024944E1,1.3582692E1,1.0547575E0,8.27887E1,3.8820503E1,3.7097534E1,1.9060009E0],"categories":[],"categories_nodes":[],"categories_segments":[],"categories_sizes":[],"default_left":[true,true,true,true,true,true,true,true,true,true,true,true,true,true,true,true,true,true,true,true,true,false,false,true,true,true,true,true,true,true,true,true,true,true,true,true,true,true,true,true,true,true,true,true,true,true,true,true,true,true,true,true,true,true,true,true,true,false,true,false,false,false,false,false,false,false,false,false,false,false,false,false,false,false,false,false,false,false,false,false,false,false,false,false,false,false,false,false,false,false,false,false,false,false,false,false,false,false,false,false,false,false,false,false,false,false,false,false,false,false,false,false,false],"id":1,"left_children":[1,3,5,7,9,11,13,15,17,19,21,23,25,27,29,31,33,35,37,39,41,-1,-1,43,45,47,49,51,53,55,57,59,61,63,65,67,69,71,73,75,77,79,81,83,85,87,89,91,93,95,97,99,101,103,105,107,109,-1,111,-1,-1,-1,-1,-1,-1,-1,-1,-1,-1,-1,-1,-1,-1,-1,-1,-1,-1,-1,-1,-1,-1,-1,-1,-1,-1,-1,-1,-1,-1,-1,-1,-1,-1,-1,-1,-1,-1,-1,-1,-1,-1,-1,-1,-1,-1,-1,-1,-1,-1,-1,-1,-1,-1],"loss_changes":[5.93655E4,1.897375E4,3.365775E4,8.09525E3,1.3503E4,1.336775E4,2.9559125E4,6.2200938E3,7.011E3,1.0699375E4,9.383469E3,9.779E3,8.9485E3,2.0130125E4,1.3566375E4,4.50825E3,6.476703E3,4.3680625E3,5.043E3,5.76275E3,8.3159375E3,0E0,0E0,5.804125E3,7.6608125E3,5.3624062E3,7.2746406E3,1.8732625E4,8.3888125E3,7.8667344E3,8.1832305E3,2.1112656E3,5.4103125E3,4.7684844E3,7.3225312E3,1.2184727E3,3.6330625E3,7.046836E3,4.603875E3,5.1241562E3,4.428E3,6.5076875E3,3.0807344E3,6.5434688E3,4.436875E3,3.7865938E3,7.055125E3,2.8001367E3,5.4002812E3,6.7095625E3,7.3694336E2,1.2058375E4,7.8285938E3,7.1796562E3,6.90825E3,8.553085E1,2.3539062E3,0E0,3.1102812E3,0E0,0E0,0E0,0E0,0E0,0E0,0E0,0E0,0E0,0E0,0E0,0E0,0E0,0E0,0E0,0E0,0E0,0E0,0E0,0E0,0E0,0E0,0E0,0E0,0E0,0E0,0E0,0E0,0E0,0E0,0E0,0E0,0E0,0E0,0E0,0E0,0E0,0E0,0E0,0E0,0E0,0E0,0E0,0E0,0E0,0E0,0E0,0E0,0E0,0E0,0E0,0E0,0E0,0E0],"parents":[2147483647,0,0,1,1,2,2,3,3,4,4,5,5,6,6,7,7,8,8,9,9,10,10,11,11,12,12,13,13,14,14,15,15,16,16,17,17,18,18,19,19,20,20,23,23,24,24,25,25,26,26,27,27,28,28,29,29,30,30,31,31,32,32,33,33,34,34,35,35,36,36,37,37,38,38,39,39,40,40,41,41,42,42,43,43,44,44,45,45,46,46,47,47,48,48,49,49,50,50,51,51,52,52,53,53,54,54,55,55,56,56,58,58],"right_children":[2,4,6,8,10,12,14,16,18,20,22,24,26,28,30,32,34,36,38,40,42,-1,-1,44,46,48,50,52,54,56,58,60,62,64,66,68,70,72,74,76,78,80,82,84,86,88,90,92,94,96,98,100,102,104,106,108,110,-1,112,-1,-1,-1,-1,-1,-1,-1,-1,-1,-1,-1,-1,-1,-1,-1,-1,-1,-1,-1,-1,-1,-1,-1,-1,-1,-1,-1,-1,-1,-1,-1,-1,-1,-1,-1,-1,-1,-1,-1,-1,-1,-1,-1,-1,-1,-1,-1,-1,-1,-1,-1,-1,-1,-1],"split_conditions":[1.0546372E-1,2.1482308E-1,2.4299055E-1,-3.3763103E-2,7.726327E-1,3.9408672E-1,5.8732295E-1,2.6633573E-1,-1.4370222E-1,3.1451905E-1,2.8954208E-1,3.2403415E-1,3.2400596E-1,2.1566582E-1,1.3517751E-1,2.7605158E-1,1.4438066E-1,-7.039617E-2,-1.2791505E-1,1.723476E-1,7.3567355E-1,1.51069E0,3.802908E0,9.920518E-2,1.7358133E-1,-6.945146E-2,2.6654577E-1,1.0942102E-2,9.659326E-2,6.014616E-2,4.3265007E-2,3.2577E-2,4.4119114E-1,1.5977496E-1,2.1331863E-1,2.1250227E-1,1.9901323E-1,1.8099347E-1,-1.4363901E-1,2.2704545E-1,5.453598E-1,3.8950974E-1,1.0012552E-1,2.2152994E-2,-1.0111824E-1,1.7575163E-2,2.2759384E-1,1.3525984E-1,2.4868542E-1,2.9661465E-1,2.4924389E-1,2.0095188E-2,-5.8594294E-2,2.6985E-2,2.9192617E-2,5E-1,5.3455734E-1,3.6108437E0,3.6844212E-1,9.994524E-1,1.5742646E0,2.5104148E0,1.2083428E0,2.2680163E0,1.2892221E0,1.9406544E0,3.1449213E0,3.1091888E0,9.90524E-1,1.512455E0,2.1793764E0,1.4057515E0,2.939923E0,2.6233757E0,1.5009515E0,1.7583834E0,2.439285E0,1.5549395E0,2.1989772E0,1.8486187E0,2.420512E0,1.1872989E0,3.5523777E0,2.4245412E0,1.7475693E0,2.0677252E0,1.5349616E0,8.6211836E-1,1.7230498E0,2.213909E0,1.5155734E0,1.3831204E0,4.029457E0,1.6999686E0,2.4356868E0,3.2319825E0,1.3947127E0,1.9644896E0,9.825565E-1,1.9701531E0,2.8137867E0,2.7330036E0,1.8302673E0,1.3311044E0,2.3199432E0,3.1196015E0,1.6012472E0,6.791346E-1,5.2737873E-2,4.139435E0,1.9410251E0,1.8548768E0,9.530004E-2],"split_indices":[324,50,397,581,870,891,1080,490,81,397,115,1247,534,1046,1248,648,644,31,13,508,530,0,0,1205,955,895,857,673,1180,224,737,474,118,1234,1204,19,771,735,394,395,190,617,73,924,958,703,525,42,136,563,136,1057,920,445,948,7,599,0,880,0,0,0,0,0,0,0,0,0,0,0,0,0,0,0,0,0,0,0,0,0,0,0,0,0,0,0,0,0,0,0,0,0,0,0,0,0,0,0,0,0,0,0,0,0,0,0,0,0,0,0,0,0,0],"split_type":[0,0,0,0,0,0,0,0,0,0,0,0,0,0,0,0,0,0,0,0,0,0,0,0,0,0,0,0,0,0,0,0,0,0,0,0,0,0,0,0,0,0,0,0,0,0,0,0,0,0,0,0,0,0,0,0,0,0,0,0,0,0,0,0,0,0,0,0,0,0,0,0,0,0,0,0,0,0,0,0,0,0,0,0,0,0,0,0,0,0,0,0,0,0,0,0,0,0,0,0,0,0,0,0,0,0,0,0,0,0,0,0,0],"sum_hessian":[6.343E3,3.674E3,2.669E3,2.509E3,1.165E3,1.678E3,9.91E2,3.41E2,2.168E3,1.141E3,2.4E1,1.419E3,2.59E2,9.19E2,7.2E1,2.11E2,1.3E2,1.26E2,2.042E3,7.43E2,3.98E2,9E0,1.5E1,9.59E2,4.6E2,1.82E2,7.7E1,5.07E2,4.12E2,4.2E1,3E1,1.66E2,4.5E1,6.3E1,6.7E1,1.3E1,1.13E2,3.6E1,2.006E3,1.8E2,5.63E2,3.82E2,1.6E1,3.08E2,6.51E2,1.29E2,3.31E2,8E0,1.74E2,5.5E1,2.2E1,2.87E2,2.2E2,1.58E2,2.54E2,2E0,4E1,8E0,2.2E1,2.6E1,1.4E2,3E1,1.5E1,2.4E1,3.9E1,3.9E1,2.8E1,1.1E1,2E0,6.8E1,4.5E1,2E1,1.6E1,1E1,1.996E3,1.32E2,4.8E1,5.29E2,3.4E1,3.06E2,7.6E1,3E0,1.3E1,5.1E1,2.57E2,5.1E1,6E2,1.8E1,1.11E2,2.78E2,5.3E1,3E0,5E0,1.34E2,4E1,4.7E1,8E0,1.6E1,6E0,6.7E1,2.2E2,3.3E1,1.87E2,2.7E1,1.31E2,8E0,2.46E2,1E0,1E0,3.6E1,4E0,1.9E1,3E0],"tree_param":{"num_deleted":"0","num_feature":"1292","num_nodes":"113","size_leaf_vector":"0"}},{"base_weights":[3.4130013E1,3.1617489E1,3.7575485E1,2.9736897E1,3.458298E1,3.6784046E1,5.5158844E1,3.0739643E1,2.6600765E1,3.2276546E1,4.0016068E1,3.9405655E1,3.2975266E1,6.971834E1,4.486412E1,3.038094E1,4.2474556E1,3.203931E1,2.4520807E1,3.0516611E1,3.869085E1,3.8595673E1,6.642321E1,3.758215E1,4.7830856E1,3.192276E1,4.1759068E1,2.999113E1,7.749744E1,2.7454542E1,5.140977E1,3.235406E1,2.8675306E1,2.7955364E1,5.1023148E1,2.4940208E1,3.6624756E1,2.498847E1,1.0695669E1,2.1759497E1,3.1526283E1,3.6606846E1,6.3620277E1,3.7395752E1,5.9524315E1,7.250458E1,2.397161E1,3.6305626E1,4.646409E1,5.3742752E1,3.9893223E1,3.569454E1,2.9912378E1,6.2631767E1,3.576101E1,7.946049E1,2.8762657E1,3.0203136E1,1.2618412E1,2.0065807E1,5.615601E1,3.1208204E1,3.905533E1,2.9696762E1,2.4412169E1,3.1471386E1,6.0234346E0,3.353528E1,6.313609E1,1.9073404E1,3.343459E1,3.230252E1,5.1878998E1,2.3904892E1,3.1447805E1,1.7340668E1,2.7137122E0,2.260522E1,-1.0177431E0,3.490688E1,2.8767668E1,4.691623E1,3.335666E1,6.955991E1,2.9896309E1,6.1608635E1,3.6372993E1,7.106469E1,2.075266E1,3.5700428E1,5.412347E1,4.1813953E1,6.490556E1,6.0346153E1,3.903487E1,5.121304E1,3.1276348E1,3.4562374E1,5.813343E1,2.9481655E1,5.3238396E1,6.954976E1,2.381704E1,2.3817501E1,4.1322113E1,2.5906853E1,1.6951135E0,6.4450226E1,3.2695812E1],"categories":[],"categories_nodes":[],"categories_segments":[],"categories_sizes":[],"default_left":[true,true,true,true,true,true,true,true,true,true,true,true,true,true,true,true,true,true,true,true,true,true,true,true,true,true,true,false,true,true,true,true,true,true,true,true,true,true,true,true,true,true,true,true,true,false,false,true,true,true,true,true,true,true,true,false,false,false,false,true,true,false,false,false,false,false,false,false,false,false,false,false,false,false,false,false,false,false,false,false,false,false,false,false,false,false,false,false,false,false,false,false,false,false,false,false,false,false,false,false,false,false,false,false,false,false,false,false,false],"id":2,"left_children":[1,3,5,7,9,11,13,15,17,19,21,23,25,27,29,31,33,35,37,39,41,43,45,47,49,51,53,-1,55,57,59,61,63,65,67,69,71,73,75,77,79,81,83,85,87,-1,-1,89,91,93,95,97,99,101,103,-1,-1,-1,-1,105,107,-1,-1,-1,-1,-1,-1,-1,-1,-1,-1,-1,-1,-1,-1,-1,-1,-1,-1,-1,-1,-1,-1,-1,-1,-1,-1,-1,-1,-1,-1,-1,-1,-1,-1,-1,-1,-1,-1,-1,-1,-1,-1,-1,-1,-1,-1,-1,-1],"loss_changes":[5.37305E4,1.94665E4,3.5127E4,6.276875E3,1.6502625E4,2.42425E4,1.3809281E4,5.878125E3,5.4811562E3,1.01305625E4,1.31524375E4,2.140125E4,8.365E3,1.1582656E4,6.4516094E3,4.645375E3,4.531328E3,3.9694531E3,2.35125E3,6.307875E3,8.685094E3,7.819125E3,3.4252266E3,1.244025E4,1.02915E4,6.067625E3,1.14065625E4,0E0,1.2542656E3,4.752334E2,6.1627188E3,4.6169375E3,3.181125E3,1.3526973E3,4.0257656E3,2.4520508E3,4.192164E3,1.9849375E3,7.485437E2,1.6603867E3,5.589125E3,5.0695E3,9.2503516E2,7.1941875E3,7.474008E3,0E0,0E0,9.86475E3,1.0406594E4,1.2115594E4,9.810609E3,6.171E3,4.659625E3,4.519492E3,4.7942734E3,0E0,0E0,0E0,0E0,8.1451733E2,6.0652656E3,0E0,0E0,0E0,0E0,0E0,0E0,0E0,0E0,0E0,0E0,0E0,0E0,0E0,0E0,0E0,0E0,0E0,0E0,0E0,0E0,0E0,0E0,0E0,0E0,0E0,0E0,0E0,0E0,0E0,0E0,0E0,0E0,0E0,0E0,0E0,0E0,0E0,0E0,0E0,0E0,0E0,0E0,0E0,0E0,0E0,0E0,0E0,0E0],"parents":[2147483647,0,0,1,1,2,2,3,3,4,4,5,5,6,6,7,7,8,8,9,9,10,10,11,11,12,12,13,13,14,14,15,15,16,16,17,17,18,18,19,19,20,20,21,21,22,22,23,23,24,24,25,25,26,26,28,28,29,29,30,30,31,31,32,32,33,33,34,34,35,35,36,36,37,37,38,38,39,39,40,40,41,41,42,42,43,43,44,44,47,47,48,48,49,49,50,50,51,51,52,52,53,53,54,54,59,59,60,60],"right_children":[2,4,6,8,10,12,14,16,18,20,22,24,26,28,30,32,34,36,38,40,42,44,46,48,50,52,54,-1,56,58,60,62,64,66,68,70,72,74,76,78,80,82,84,86,88,-1,-1,90,92,94,96,98,100,102,104,-1,-1,-1,-1,106,108,-1,-1,-1,-1,-1,-1,-1,-1,-1,-1,-1,-1,-1,-1,-1,-1,-1,-1,-1,-1,-1,-1,-1,-1,-1,-1,-1,-1,-1,-1,-1,-1,-1,-1,-1,-1,-1,-1,-1,-1,-1,-1,-1,-1,-1,-1,-1,-1],"split_conditions":[1.0546372E-1,2.8190157E-1,5.155734E-1,1.1758901E-1,3.1763613E-1,2.1859592E-1,1.0041517E-1,4.5945764E-1,6.215126E-2,2.0399222E-1,6.5402615E-1,3.6930698E-1,3.84478E-1,5.3632893E-2,3.1127438E-2,1.3070181E-1,1.2023787E-1,1.5529858E-1,8.05053E-1,2.2233104E-2,6.113946E-1,5.176974E-1,2.5772482E-1,3.8359725E-1,1.2404741E-1,1.0993962E-1,1.8150907E-2,1.4995565E0,4.8921424E-1,3.628416E-1,1.4508286E-1,4.486998E-1,2.6602954E-1,2.2624749E-1,1.22421056E-1,1.90516E-1,3.0648E-1,3.2749075E-1,2.3635018E-1,6.714722E-1,1.5055734E-1,3.1969275E-2,1.9441846E-1,1.465849E-2,3.6364287E-1,3.625229E0,1.1985805E0,4.676047E-1,4.0434647E-1,1.6416727E-1,1.6650626E-1,5.6522596E-1,6.26096E-1,3.1997132E-1,1.5830848E-1,3.9730244E0,1.4381329E0,1.5101569E0,6.309206E-1,3.2252592E-1,1.01567745E-1,1.5604103E0,1.9527664E0,1.4848381E0,1.2206085E0,1.5735693E0,3.0117175E-1,1.6767639E0,3.1568046E0,9.536702E-1,1.6717294E0,1.615126E0,2.59395E0,1.1952447E0,1.5723903E0,8.670334E-1,1.3568561E-1,1.1302611E0,-5.0887156E-2,1.745344E0,1.4383835E0,2.3458116E0,1.667833E0,3.4779956E0,1.4948155E0,3.0804317E0,1.8186496E0,3.5532346E0,1.0376331E0,1.7850214E0,2.7061737E0,2.0906978E0,3.2452781E0,3.0173078E0,1.9517435E0,2.560652E0,1.5638174E0,1.7281188E0,2.9066715E0,1.4740828E0,2.6619198E0,3.477488E0,1.190852E0,1.190875E0,2.0661056E0,1.2953427E0,8.475568E-2,3.2225113E0,1.6347907E0],"split_indices":[324,879,417,166,397,1188,878,307,1087,495,101,709,20,154,781,1106,465,1291,1228,1063,1077,872,423,80,833,498,925,0,441,333,945,395,31,310,123,580,374,792,234,974,494,703,32,416,283,0,0,263,397,956,1203,147,163,1285,754,0,0,0,0,25,449,0,0,0,0,0,0,0,0,0,0,0,0,0,0,0,0,0,0,0,0,0,0,0,0,0,0,0,0,0,0,0,0,0,0,0,0,0,0,0,0,0,0,0,0,0,0,0,0],"split_type":[0,0,0,0,0,0,0,0,0,0,0,0,0,0,0,0,0,0,0,0,0,0,0,0,0,0,0,0,0,0,0,0,0,0,0,0,0,0,0,0,0,0,0,0,0,0,0,0,0,0,0,0,0,0,0,0,0,0,0,0,0,0,0,0,0,0,0,0,0,0,0,0,0,0,0,0,0,0,0,0,0,0,0,0,0,0,0,0,0,0,0,0,0,0,0,0,0,0,0,0,0,0,0,0,0,0,0,0,0],"sum_hessian":[6.343E3,3.674E3,2.669E3,2.255E3,1.419E3,2.557E3,1.12E2,1.702E3,5.53E2,1.001E3,4.18E2,1.509E3,1.048E3,4.4E1,6.8E1,1.655E3,4.7E1,1.49E2,4.04E2,7.9E2,2.11E2,3.99E2,1.9E1,1.245E3,2.64E2,9.4E2,1.08E2,8E0,3.6E1,2E1,4.8E1,7.59E2,8.96E2,1.9E1,2.8E1,6.1E1,8.8E1,3.9E2,1.4E1,8.4E1,7.06E2,1.97E2,1.4E1,3.8E2,1.9E1,1.6E1,3E0,1.093E3,1.52E2,1.48E2,1.16E2,3.21E2,6.19E2,2.2E1,8.6E1,3.4E1,2E0,1.6E1,4E0,7E0,4.1E1,6.53E2,1.06E2,7.18E2,1.78E2,1.6E1,3E0,1.3E1,1.5E1,3.8E1,2.3E1,7.1E1,1.7E1,3.38E2,5.2E1,7E0,7E0,8.1E1,3E0,3.12E2,3.94E2,4.4E1,1.53E2,1.1E1,3E0,1.3E1,3.67E2,1.4E1,5E0,1.06E3,3.3E1,1.24E2,2.8E1,1E2,4.8E1,4.8E1,6.8E1,3.08E2,1.3E1,6.1E2,9E0,1.8E1,4E0,2.9E1,5.7E1,5E0,2E0,2.9E1,1.2E1],"tree_param":{"num_deleted":"0","num_feature":"1292","num_nodes":"109","size_leaf_vector":"0"}},{"base_weights":[3.243959E1,3.5248604E1,2.9718836E1,3.301695E1,4.159293E1,2.8638147E1,3.4220257E1,3.2762417E1,6.542167E1,4.6450886E1,3.3857807E1,3.0296122E1,2.612616E1,3.2850246E1,4.769674E1,3.0444647E1,3.506573E1,1.7449492E1,7.4455025E1,4.350774E1,6.333116E1,2.9540716E1,4.3115646E1,3.0075005E1,5.6424603E1,2.5384024E1,3.252828E1,3.1098446E1,4.089865E1,5.572674E1,2.9549011E1,3.217479E1,2.762744E1,3.1555422E1,3.7849632E1,4.9941692E1,3.773242E1,5.1828533E1,7.820295E1,2.607178E1,4.229748E1,3.0904999E1,5.0333977E1,2.795499E1,3.2178074E1,2.6167206E1,6.82824E1,3.597599E1,2.4971573E1,2.4466652E1,4.0274426E1,3.2016155E1,1.9171125E1,5.5972744E1,3.5529625E1,2.33069E1,6.1249718E1,1.3190061E1,3.3032063E1,4.272947E1,3.1271627E1,2.6956999E1,4.2921104E1,3.7446095E1,2.8964233E1,4.834916E1,3.6394608E1,5.4689568E1,3.4485058E1,2.2891659E1,4.0689327E1,2.767146E1,5.8310333E1,2.7462362E1,8.094439E1,2.476639E1,4.7252117E1,2.3687695E1,4.993778E1,1.7621027E1,3.549438E1,6.585593E1,3.7365273E1,2.7691727E1,5.738829E1,3.5997307E1,2.9333426E1,4.8774845E1,2.6339748E1,3.3914505E1,2.451008E1,1.1016424E1,2.727315E1,7.932187E0,4.2804356E1,3.508203E1,2.8219355E1,2.2705915E1,3.961121E0,1.6196873E1,6.3118076E1,4.46663E1,2.8798538E1,3.4810843E0,2.6031023E1,6.556466E1,2.5699087E1,1.5212467E1,2.5502164E0],"categories":[],"categories_nodes":[],"categories_segments":[],"categories_sizes":[],"default_left":[true,true,true,true,true,true,true,true,true,true,true,true,true,true,true,true,true,false,false,true,true,true,true,true,true,true,true,true,true,true,true,true,true,true,true,true,true,true,true,true,true,true,true,true,true,false,false,true,true,true,true,true,true,true,true,true,true,true,false,false,false,false,false,false,false,false,false,false,false,false,false,false,false,false,false,false,false,false,false,false,false,false,false,false,false,false,false,false,false,false,false,false,false,false,false,false,false,false,false,false,false,false,false,false,false,false,false,false,false],"id":3,"left_children":[1,3,5,7,9,11,13,15,17,19,21,23,25,27,29,31,33,-1,-1,35,37,39,41,43,45,47,49,51,53,55,57,59,61,63,65,67,69,71,73,75,77,79,81,83,85,-1,-1,87,89,91,93,95,97,99,101,103,105,107,-1,-1,-1,-1,-1,-1,-1,-1,-1,-1,-1,-1,-1,-1,-1,-1,-1,-1,-1,-1,-1,-1,-1,-1,-1,-1,-1,-1,-1,-1,-1,-1,-1,-1,-1,-1,-1,-1,-1,-1,-1,-1,-1,-1,-1,-1,-1,-1,-1,-1,-1],"loss_changes":[4.74375E4,4.274425E4,1.472775E4,1.69095E4,2.875175E4,1.00785E4,9.88025E3,1.117925E4,6.067742E3,2.17375E4,1.13159375E4,7.350625E3,4.1393125E3,6.70825E3,6.3682812E3,4.72125E3,9.985125E3,0E0,0E0,1.38334375E4,8.0924375E3,8.54425E3,7.082203E3,6.0335E3,2.5186719E3,3.2125625E3,5.571508E3,4.5197812E3,5.94275E3,5.197461E3,6.4690625E2,5.4033125E3,3.4057812E3,6.7305E3,7.91075E3,1.2571094E4,9.0299375E3,5.119453E3,1.8110312E3,3.6405938E3,5.2153906E3,1.7521953E3,9.61725E3,4.47025E3,7.353125E3,0E0,0E0,2.7852695E3,2.9203125E3,1.7379414E3,3.9153047E3,4.062E3,1.8455693E3,5.7987656E3,3.3261562E3,2.874392E2,3.070414E3,6.879541E1,0E0,0E0,0E0,0E0,0E0,0E0,0E0,0E0,0E0,0E0,0E0,0E0,0E0,0E0,0E0,0E0,0E0,0E0,0E0,0E0,0E0,0E0,0E0,0E0,0E0,0E0,0E0,0E0,0E0,0E0,0E0,0E0,0E0,0E0,0E0,0E0,0E0,0E0,0E0,0E0,0E0,0E0,0E0,0E0,0E0,0E0,0E0,0E0,0E0,0E0,0E0],"parents":[2147483647,0,0,1,1,2,2,3,3,4,4,5,5,6,6,7,7,8,8,9,9,10,10,11,11,12,12,13,13,14,14,15,15,16,16,19,19,20,20,21,21,22,22,23,23,24,24,25,25,26,26,27,27,28,28,29,29,30,30,31,31,32,32,33,33,34,34,35,35,36,36,37,37,38,38,39,39,40,40,41,41,42,42,43,43,44,44,47,47,48,48,49,49,50,50,51,51,52,52,53,53,54,54,55,55,56,56,57,57],"right_children":[2,4,6,8,10,12,14,16,18,20,22,24,26,28,30,32,34,-1,-1,36,38,40,42,44,46,48,50,52,54,56,58,60,62,64,66,68,70,72,74,76,78,80,82,84,86,-1,-1,88,90,92,94,96,98,100,102,104,106,108,-1,-1,-1,-1,-1,-1,-1,-1,-1,-1,-1,-1,-1,-1,-1,-1,-1,-1,-1,-1,-1,-1,-1,-1,-1,-1,-1,-1,-1,-1,-1,-1,-1,-1,-1,-1,-1,-1,-1,-1,-1,-1,-1,-1,-1,-1,-1,-1,-1,-1,-1],"split_conditions":[2.0528737E-1,2.9556206E-1,3.0006796E-1,1.1281238E0,1.355944E-1,2.0161119E-1,4.2057768E-1,8.4607765E-2,8.0029294E-2,4.8436117E-1,3.9172298E-1,7.4040556E-1,5.800581E-1,3.220255E-1,1.6381213E-1,2.1725819E-1,1.7302275E-1,8.724746E-1,3.7227514E0,4.3328688E-2,1.14168465E-1,4.4634226E-1,2.1596837E-1,1.53514E-1,1.453474E-1,-1.4713383E-1,3.0000937E-1,4.4454372E-1,5.8001112E-2,4.671396E-2,1.0943109E-1,-1.6461706E-1,4.2175865E-1,1.04870066E-1,-1.0316791E-1,2.782655E-1,-2.552073E-2,1.17217645E-1,-1.3003843E-1,7.249615E-1,1.0283474E-1,-2.1408461E-2,2.3909195E-1,3.9581764E-1,-7.1203746E-2,1.3083603E0,3.4141202E0,8.541288E-2,5.0530702E-2,-5.7017123E-3,7.4339397E-3,5.6672662E-2,1.862666E-1,8.5038E-3,7.977574E-3,1.6634658E-1,4.50967E-1,2.318352E-1,1.6516031E0,2.1364734E0,1.5635813E0,1.34785E0,2.1460552E0,1.8723048E0,1.4482117E0,2.417458E0,1.8197304E0,2.7344785E0,1.7242529E0,1.144583E0,2.0344665E0,1.3835729E0,2.9155166E0,1.3731182E0,4.0472198E0,1.2383195E0,2.3626058E0,1.1843847E0,2.4968889E0,8.8105136E-1,1.7747191E0,3.2927964E0,1.8682636E0,1.3845863E0,2.8694146E0,1.7998654E0,1.4666713E0,2.4387424E0,1.3169874E0,1.6957253E0,1.225504E0,5.5082124E-1,1.3636575E0,3.9660937E-1,2.1402178E0,1.7541016E0,1.4109677E0,1.1352957E0,1.9805606E-1,8.0984366E-1,3.1559038E0,2.2333152E0,1.439927E0,1.7405422E-1,1.3015512E0,3.278233E0,1.2849544E0,7.606234E-1,1.2751083E-1],"split_indices":[1188,709,1185,190,956,390,638,1045,104,488,831,1271,542,471,1159,346,397,0,0,346,159,294,668,561,256,936,142,295,1085,260,99,1113,375,176,901,252,182,154,175,1101,356,825,77,335,829,0,0,468,855,350,1075,635,1160,629,318,16,1049,19,0,0,0,0,0,0,0,0,0,0,0,0,0,0,0,0,0,0,0,0,0,0,0,0,0,0,0,0,0,0,0,0,0,0,0,0,0,0,0,0,0,0,0,0,0,0,0,0,0,0,0],"split_type":[0,0,0,0,0,0,0,0,0,0,0,0,0,0,0,0,0,0,0,0,0,0,0,0,0,0,0,0,0,0,0,0,0,0,0,0,0,0,0,0,0,0,0,0,0,0,0,0,0,0,0,0,0,0,0,0,0,0,0,0,0,0,0,0,0,0,0,0,0,0,0,0,0,0,0,0,0,0,0,0,0,0,0,0,0,0,0,0,0,0,0,0,0,0,0,0,0,0,0,0,0,0,0,0,0,0,0,0,0],"sum_hessian":[6.343E3,3.115E3,3.228E3,2.309E3,8.06E2,2.609E3,6.19E2,2.293E3,1.6E1,4.92E2,3.14E2,1.565E3,1.044E3,5.65E2,5.4E1,1.15E3,1.143E3,3E0,1.3E1,4.22E2,7E1,2.17E2,9.7E1,1.554E3,1.1E1,9.4E2,1.04E2,4.68E2,9.7E1,3.6E1,1.8E1,7.06E2,4.44E2,5.11E2,6.32E2,1.96E2,2.26E2,4.2E1,2.8E1,1.73E2,4.4E1,3.8E1,5.9E1,7.81E2,7.73E2,4E0,7E0,3.2E1,9.08E2,5.3E1,5.1E1,4.33E2,3.5E1,2.3E1,7.4E1,6E0,3E1,4E0,1.4E1,5.2E1,6.54E2,4.28E2,1.6E1,1.52E2,3.59E2,7.3E1,5.59E2,1.48E2,4.8E1,3.9E1,1.87E2,1E1,3.2E1,2E0,2.6E1,1.65E2,8E0,1.4E1,3E1,1.1E1,2.7E1,2.5E1,3.4E1,7.76E2,5E0,3.25E2,4.48E2,1.2E1,2E1,4.1E1,8.67E2,1E1,4.3E1,4E0,4.7E1,2.35E2,1.98E2,2.8E1,7E0,4E0,1.9E1,2.9E1,4.5E1,1E0,5E0,2.6E1,4E0,3E0,1E0],"tree_param":{"num_deleted":"0","num_feature":"1292","num_nodes":"109","size_leaf_vector":"0"}},{"base_weights":[3.0832727E1,2.8502651E1,3.4028305E1,2.6752062E1,3.1216637E1,3.0982658E1,3.805768E1,2.6587524E1,4.6713383E1,2.9056793E1,3.603479E1,2.8781637E1,3.6036488E1,3.713411E1,5.8843777E1,2.7516333E1,2.3666862E1,6.1696053E1,3.0055906E1,2.7321054E1,3.5384914E1,3.475708E1,6.1128796E1,2.6744122E1,3.2568844E1,4.093379E1,2.9135874E1,4.0650673E1,3.296297E1,1.8699293E1,6.42625E1,2.611521E1,3.021833E1,2.9032074E1,2.1625774E1,4.8401855E1,2.690391E1,3.134314E1,4.8457123E1,2.9923855E1,3.887414E1,6.67711E1,2.1866787E1,2.7525352E1,1.8109158E1,4.054814E1,2.961441E1,4.9683685E1,3.5533943E1,2.584487E1,3.6784336E1,4.2722164E1,2.8928185E1,3.633493E1,2.8525595E1,2.792536E1,-2.9105828E0,7.2108604E1,3.630871E1,2.5920874E1,4.9766197E1,3.8875053E1,2.882253E1,4.0339687E1,2.5662457E1,1.6075588E1,2.2864748E1,2.1353342E1,6.601907E1,1.9152433E1,2.782114E1,4.8522934E1,2.8757355E1,5.6392475E1,2.7239843E1,2.836138E1,5.646225E1,5.491489E1,3.6490437E1,2.9991806E1,2.4717964E1,2.913639E0,2.0024992E1,5.0010048E1,3.208755E1,3.8892303E1,2.7040888E1,5.8198925E1,3.8607456E1,2.9476597E1,4.5675903E1,2.7529028E1,1.563688E1,4.7984386E1,2.6204155E1,4.7132374E1,3.590527E1,3.668535E1,2.0373514E1,3.2124386E1,4.3463036E1,4.4475292E1,2.629837E1,3.653528E1,7.6025566E1],"categories":[],"categories_nodes":[],"categories_segments":[],"categories_sizes":[],"default_left":[true,true,true,true,true,true,true,true,true,true,true,true,true,true,true,true,true,false,false,true,true,true,true,true,true,true,true,true,true,true,true,true,true,true,true,true,true,true,true,true,true,false,false,true,true,true,true,true,true,true,true,true,true,true,true,false,false,true,false,false,false,false,false,false,false,false,false,false,false,false,false,false,false,false,false,false,false,false,false,false,false,false,false,false,false,false,false,false,false,false,false,false,false,false,false,false,false,false,false,false,false,false,false,false,false],"id":4,"left_children":[1,3,5,7,9,11,13,15,17,19,21,23,25,27,29,31,33,-1,-1,35,37,39,41,43,45,47,49,51,53,55,57,59,61,63,65,67,69,71,73,75,77,-1,-1,79,81,83,85,87,89,91,93,95,97,99,101,-1,-1,103,-1,-1,-1,-1,-1,-1,-1,-1,-1,-1,-1,-1,-1,-1,-1,-1,-1,-1,-1,-1,-1,-1,-1,-1,-1,-1,-1,-1,-1,-1,-1,-1,-1,-1,-1,-1,-1,-1,-1,-1,-1,-1,-1,-1,-1,-1,-1],"loss_changes":[4.62675E4,1.6625E4,3.158725E4,6.11825E3,1.3886125E4,1.5937375E4,1.9795875E4,5.384625E3,2.388418E3,9.9733125E3,1.1983E4,7.37025E3,1.43189375E4,1.478025E4,9.022328E3,5.57875E3,5.3294062E3,0E0,0E0,5.6096875E3,9.629375E3,7.2140938E3,2.9705E3,4.2236875E3,7.498125E3,1.0802531E4,3.9325156E3,1.3139625E4,6.5645625E3,1.4768982E3,6.374297E3,3.83475E3,5.7426875E3,4.565828E3,2.3692969E3,5.261547E3,4.9630625E3,5.8900312E3,6.5454766E3,6.6088438E3,6.5610938E3,0E0,0E0,3.6901875E3,1.7174902E3,6.1604688E3,5.4666875E3,7.090453E3,8.9744375E3,1.9592109E3,5.3785234E3,1.336975E4,5.357711E3,7.1575312E3,6.7876562E3,0E0,0E0,1.5418906E3,0E0,0E0,0E0,0E0,0E0,0E0,0E0,0E0,0E0,0E0,0E0,0E0,0E0,0E0,0E0,0E0,0E0,0E0,0E0,0E0,0E0,0E0,0E0,0E0,0E0,0E0,0E0,0E0,0E0,0E0,0E0,0E0,0E0,0E0,0E0,0E0,0E0,0E0,0E0,0E0,0E0,0E0,0E0,0E0,0E0,0E0,0E0],"parents":[2147483647,0,0,1,1,2,2,3,3,4,4,5,5,6,6,7,7,8,8,9,9,10,10,11,11,12,12,13,13,14,14,15,15,16,16,19,19,20,20,21,21,22,22,23,23,24,24,25,25,26,26,27,27,28,28,29,29,30,30,31,31,32,32,33,33,34,34,35,35,36,36,37,37,38,38,39,39,40,40,43,43,44,44,45,45,46,46,47,47,48,48,49,49,50,50,51,51,52,52,53,53,54,54,57,57],"right_children":[2,4,6,8,10,12,14,16,18,20,22,24,26,28,30,32,34,-1,-1,36,38,40,42,44,46,48,50,52,54,56,58,60,62,64,66,68,70,72,74,76,78,-1,-1,80,82,84,86,88,90,92,94,96,98,100,102,-1,-1,104,-1,-1,-1,-1,-1,-1,-1,-1,-1,-1,-1,-1,-1,-1,-1,-1,-1,-1,-1,-1,-1,-1,-1,-1,-1,-1,-1,-1,-1,-1,-1,-1,-1,-1,-1,-1,-1,-1,-1,-1,-1,-1,-1,-1,-1,-1,-1],"split_conditions":[1.0546372E-1,2.7818257E-1,2.0419818E-1,5.8658504E-1,3.148396E-1,3.6633357E-1,8.161274E-1,1.1758901E-1,2.1657862E-1,2.0399222E-1,6.5402615E-1,2.3869103E-1,2.720353E-1,2.030495E-1,5.816402E-2,1.9812861E-1,6.215126E-2,3.0848026E0,1.5027953E0,-1.5017132E-1,4.780219E-1,8.15078E-2,2.5772482E-1,6.1405015E-1,1.0408662E-2,7.566362E-2,2.134673E-1,3.9630613E-1,2.2516966E-1,1.5794732E-1,1.7409447E-1,7.661105E-1,1.04728274E-1,1.4260653E-1,9.010296E-2,2.0371363E-1,2.2233104E-2,7.8106165E-2,1.8103781E-1,6.653944E-1,-6.337294E-2,3.338555E0,1.0933393E0,1.6942275E-1,1.6499303E-1,1.2639047E-1,8.297844E-2,1.1292139E-1,1.812415E-1,3.684105E-1,2.3804672E-1,1.7753735E-1,2.078397E-1,5.717801E-2,-9.050165E-2,1.396268E0,-1.4552914E-1,-6.047737E-2,1.8154354E0,1.2960438E0,2.4883099E0,1.9437526E0,1.4411266E0,2.0169845E0,1.2831229E0,8.037794E-1,1.1432375E0,1.0676671E0,3.3009536E0,9.576217E-1,1.391057E0,2.4261467E0,1.4378678E0,2.8196237E0,1.3619922E0,1.418069E0,2.8231125E0,2.7457445E0,1.8245219E0,1.4995903E0,1.2358983E0,1.4568196E-1,1.0012497E0,2.5005023E0,1.6043776E0,1.9446152E0,1.3520445E0,2.9099462E0,1.9303728E0,1.4738299E0,2.283795E0,1.3764514E0,7.81844E-1,2.3992193E0,1.3102077E0,2.3566186E0,1.7952635E0,1.8342675E0,1.0186757E0,1.6062193E0,2.1731517E0,2.2237647E0,1.3149185E0,1.826764E0,3.8012784E0],"split_indices":[324,879,638,152,397,870,190,166,1272,495,101,741,79,66,690,395,1087,0,0,1145,831,456,423,119,1285,629,299,344,1108,22,494,526,814,555,339,147,1063,950,922,262,609,0,0,1023,1137,737,61,1188,763,997,266,252,621,449,786,0,0,852,0,0,0,0,0,0,0,0,0,0,0,0,0,0,0,0,0,0,0,0,0,0,0,0,0,0,0,0,0,0,0,0,0,0,0,0,0,0,0,0,0,0,0,0,0,0,0],"split_type":[0,0,0,0,0,0,0,0,0,0,0,0,0,0,0,0,0,0,0,0,0,0,0,0,0,0,0,0,0,0,0,0,0,0,0,0,0,0,0,0,0,0,0,0,0,0,0,0,0,0,0,0,0,0,0,0,0,0,0,0,0,0,0,0,0,0,0,0,0,0,0,0,0,0,0,0,0,0,0,0,0,0,0,0,0,0,0,0,0,0,0,0,0,0,0,0,0,0,0,0,0,0,0,0,0],"sum_hessian":[6.343E3,3.674E3,2.669E3,2.24E3,1.434E3,1.525E3,1.144E3,2.224E3,1.6E1,9.95E2,4.39E2,1.067E3,4.58E2,1.098E3,4.6E1,1.681E3,5.43E2,7E0,9E0,7.85E2,2.1E2,4.2E2,1.9E1,6.99E2,3.68E2,2.65E2,1.93E2,5.91E2,5.07E2,6E0,4E1,1.114E3,5.67E2,1.46E2,3.97E2,1.3E1,7.72E2,1.63E2,4.7E1,1.97E2,2.23E2,1.6E1,3E0,6.39E2,6E1,9.6E1,2.72E2,9.8E1,1.67E2,1.38E2,5.5E1,5E2,9.1E1,2.84E2,2.23E2,4E0,2E0,3E1,1E1,1.107E3,7E0,7.5E1,4.92E2,3.1E1,1.15E2,7.5E1,3.22E2,6E0,7E0,8.4E1,6.88E2,1.9E1,1.44E2,3.3E1,1.4E1,1.88E2,9E0,2.6E1,1.97E2,3.35E2,3.04E2,7E0,5.3E1,4.3E1,5.3E1,5.6E1,2.16E2,5.3E1,4.5E1,1.07E2,6E1,1.17E2,2.1E1,2.5E1,3E1,3E2,2E2,4.6E1,4.5E1,1.82E2,1.02E2,2.5E1,1.98E2,4E0,2.6E1],"tree_param":{"num_deleted":"0","num_feature":"1292","num_nodes":"105","size_leaf_vector":"0"}},{"base_weights":[2.9305872E1,2.781879E1,3.380621E1,3.1227371E1,2.6519375E1,2.9175041E1,3.8382652E1,3.5609436E1,2.8546091E1,2.5863855E1,3.079616E1,3.7629593E1,2.7455122E1,3.5705624E1,4.833439E1,3.3595886E1,4.772967E1,2.6354303E1,3.450509E1,2.455994E1,2.7686579E1,2.6982763E1,3.587918E1,4.519804E1,2.8327614E1,3.0517954E1,2.3741425E1,3.1819975E1,4.2089603E1,5.7924175E1,3.779271E1,4.937976E1,3.2104713E1,5.687423E1,3.6307434E1,3.7047997E1,2.5549158E1,4.1019917E1,2.8146132E1,2.4470201E1,5.790551E1,3.285183E1,2.619142E1,2.2414001E1,3.219697E1,3.980808E1,2.5101477E1,3.334897E1,5.747279E1,3.5730034E1,1.832726E1,2.5239517E1,3.5153336E1,3.2504826E1,2.2154871E1,2.9330132E1,4.1313526E1,4.487263E1,2.6627438E1,6.253616E1,2.1632256E1,2.967727E1,4.992479E1,5.8253628E1,2.1369738E1,2.985737E1,4.25939E1,6.2497257E1,2.9381485E1,2.6529339E1,4.9309937E1,4.61195E1,2.0558273E1,4.027257E1,2.4933825E1,5.6517147E1,3.465057E1,2.4111141E1,3.804155E1,2.5676874E1,2.2430014E1,4.6703518E1,3.0306189E1,3.4220432E1,2.5413218E1,4.7307156E1,2.0203264E1,4.0670235E1,2.4760754E1,6.1888363E1,3.7038776E1,6.3123393E0,3.0319508E1,4.1616253E1,2.0688421E1,6.672556E1,3.5719967E1,5.150103E1,2.7992434E1,2.0857985E1,-2.0715835E0,3.5473133E1,2.2125854E1,5.3578773E1,3.287383E1,2.1742485E1,4.1385983E1,4.364585E1,2.1292576E1,3.9020115E1,2.7347105E1,2.7444891E1,4.9244427E1,4.9129223E1,3.335384E1,1.2946826E0,3.133687E1,3.427931E1,6.7996155E1,2.5253305E1,8.982089E0,4.0433487E1,2.0800137E1,2.6741285E0,5.4891857E1],"categories":[],"categories_nodes":[],"categories_segments":[],"categories_sizes":[],"default_left":[true,true,true,true,true,true,true,true,true,true,true,true,true,true,true,true,true,true,true,true,true,true,true,true,true,true,true,true,true,true,true,true,true,true,true,true,true,true,true,true,false,true,true,true,true,true,true,true,true,true,true,true,true,true,true,true,true,true,true,true,true,true,true,false,false,false,false,false,false,false,false,false,false,false,false,false,false,false,false,false,false,false,false,false,false,false,false,false,false,false,false,false,false,false,false,false,false,false,false,false,false,false,false,false,false,false,false,false,false,false,false,false,false,false,false,false,false,false,false,false,false,false,false,false,false],"id":5,"left_children":[1,3,5,7,9,11,13,15,17,19,21,23,25,27,29,31,33,35,37,39,41,43,45,47,49,51,53,55,57,59,61,63,65,67,69,71,73,75,77,79,-1,81,83,85,87,89,91,93,95,97,99,101,103,105,107,109,111,113,115,117,119,121,123,-1,-1,-1,-1,-1,-1,-1,-1,-1,-1,-1,-1,-1,-1,-1,-1,-1,-1,-1,-1,-1,-1,-1,-1,-1,-1,-1,-1,-1,-1,-1,-1,-1,-1,-1,-1,-1,-1,-1,-1,-1,-1,-1,-1,-1,-1,-1,-1,-1,-1,-1,-1,-1,-1,-1,-1,-1,-1,-1,-1,-1,-1],"loss_changes":[4.1516E4,2.031675E4,3.21765E4,1.4399E4,8.912E3,1.03816875E4,1.924075E4,1.0452375E4,9.7874375E3,6.4715E3,7.8514062E3,7.8718438E3,6.737125E3,1.4139625E4,1.4390031E4,8.464781E3,5.0377344E3,4.2452812E3,7.8352188E3,3.85875E3,8.7699375E3,5.5674688E3,7.1309062E3,8.264453E3,3.8608008E3,7.8231875E3,3.4648438E3,8.0541562E3,8.831531E3,1.27069375E4,6.4933906E3,7.454633E3,7.9923438E3,3.7290625E3,2.8874531E3,5.035324E3,4.1055625E3,8.405922E3,3.5946328E3,3.756875E3,0E0,8.31675E3,5.203625E3,6.968883E3,6.6170547E3,6.207172E3,5.1028984E3,3.1164219E3,4.2586094E3,2.7073672E3,1.4886777E3,4.6320156E3,6.092828E3,3.3057734E3,3.8518047E3,4.9665625E3,7.3377656E3,7.9714062E3,4.4929395E3,9.086031E3,2.7704834E2,4.0286836E3,7.1288203E3,0E0,0E0,0E0,0E0,0E0,0E0,0E0,0E0,0E0,0E0,0E0,0E0,0E0,0E0,0E0,0E0,0E0,0E0,0E0,0E0,0E0,0E0,0E0,0E0,0E0,0E0,0E0,0E0,0E0,0E0,0E0,0E0,0E0,0E0,0E0,0E0,0E0,0E0,0E0,0E0,0E0,0E0,0E0,0E0,0E0,0E0,0E0,0E0,0E0,0E0,0E0,0E0,0E0,0E0,0E0,0E0,0E0,0E0,0E0,0E0,0E0,0E0],"parents":[2147483647,0,0,1,1,2,2,3,3,4,4,5,5,6,6,7,7,8,8,9,9,10,10,11,11,12,12,13,13,14,14,15,15,16,16,17,17,18,18,19,19,20,20,21,21,22,22,23,23,24,24,25,25,26,26,27,27,28,28,29,29,30,30,31,31,32,32,33,33,34,34,35,35,36,36,37,37,38,38,39,39,41,41,42,42,43,43,44,44,45,45,46,46,47,47,48,48,49,49,50,50,51,51,52,52,53,53,54,54,55,55,56,56,57,57,58,58,59,59,60,60,61,61,62,62],"right_children":[2,4,6,8,10,12,14,16,18,20,22,24,26,28,30,32,34,36,38,40,42,44,46,48,50,52,54,56,58,60,62,64,66,68,70,72,74,76,78,80,-1,82,84,86,88,90,92,94,96,98,100,102,104,106,108,110,112,114,116,118,120,122,124,-1,-1,-1,-1,-1,-1,-1,-1,-1,-1,-1,-1,-1,-1,-1,-1,-1,-1,-1,-1,-1,-1,-1,-1,-1,-1,-1,-1,-1,-1,-1,-1,-1,-1,-1,-1,-1,-1,-1,-1,-1,-1,-1,-1,-1,-1,-1,-1,-1,-1,-1,-1,-1,-1,-1,-1,-1,-1,-1,-1,-1,-1],"split_conditions":[4.0184158E-1,1.8719759E-2,2.375418E-1,6.404783E-2,4.2072052E-1,6.239719E-2,3.9086896E-1,4.8759526E-1,3.2819372E-1,8.3722815E-2,1.8429278E-1,2.1502867E-1,9.780571E-2,1.6887936E-1,4.4427827E-2,4.779739E-2,2.5319076E-1,-3.0099642E-2,1.3653153E-1,1.152987E0,6.265503E-2,1.038121E-1,2.4846283E-1,2.0156202E-1,1.139798E-1,1.0586032E-1,-1.6559142E-1,4.172289E-1,3.9064592E-1,7.478618E-1,2.8247273E-1,3.1096143E-1,3.8889033E-1,3.6752966E-1,2.2229551E-1,1.7893383E-1,-1.5085825E-1,9.9355035E-2,3.5975763E-1,2.2932766E-1,2.8952756E0,-2.3825478E-2,-4.5076173E-2,-1.2760752E-1,1.4544374E-1,-4.8335683E-2,2.2600195E-1,4.168536E-2,2.2298041E-1,9.641616E-2,4.4726294E-1,1.1519069E-1,7.8674614E-2,1.0026203E-1,-1.549236E-1,6.2709846E-2,1.2692443E-1,2.229684E-1,-5.5987068E-2,3.413454E-2,5.2492666E-1,3.698098E-2,1.4260954E-1,2.9126813E0,1.0684869E0,1.4928685E0,2.129695E0,3.124863E0,1.4690742E0,1.3264669E0,2.4654968E0,2.305975E0,1.0279137E0,2.0136287E0,1.2466912E0,2.8258574E0,1.7325286E0,1.2055571E0,1.9020776E0,1.2838438E0,1.1215007E0,2.335176E0,1.5153095E0,1.7110217E0,1.2706609E0,2.3653579E0,1.0101632E0,2.0335119E0,1.2380377E0,3.0944183E0,1.8519388E0,3.1561697E-1,1.5159754E0,2.0808127E0,1.0344211E0,3.3362782E0,1.7859983E0,2.5750515E0,1.3996217E0,1.0428993E0,-1.0357918E-1,1.7736567E0,1.1062927E0,2.6789386E0,1.6436914E0,1.0871242E0,2.0692992E0,2.1822927E0,1.0646288E0,1.9510058E0,1.3673552E0,1.3722446E0,2.4622214E0,2.4564612E0,1.6676921E0,6.473413E-2,1.5668435E0,1.7139654E0,3.3998077E0,1.2626653E0,4.4910446E-1,2.0216744E0,1.0400069E0,1.3370644E-1,2.744593E0],"split_indices":[879,581,223,874,638,1203,395,232,642,1190,588,855,337,839,1187,1014,733,1017,1117,906,983,492,346,198,267,190,279,530,1076,910,124,155,591,1246,1000,684,622,587,1271,1218,0,394,32,1271,261,264,463,78,1235,878,328,392,41,131,1057,356,815,450,869,427,203,924,945,0,0,0,0,0,0,0,0,0,0,0,0,0,0,0,0,0,0,0,0,0,0,0,0,0,0,0,0,0,0,0,0,0,0,0,0,0,0,0,0,0,0,0,0,0,0,0,0,0,0,0,0,0,0,0,0,0,0,0,0,0,0],"split_type":[0,0,0,0,0,0,0,0,0,0,0,0,0,0,0,0,0,0,0,0,0,0,0,0,0,0,0,0,0,0,0,0,0,0,0,0,0,0,0,0,0,0,0,0,0,0,0,0,0,0,0,0,0,0,0,0,0,0,0,0,0,0,0,0,0,0,0,0,0,0,0,0,0,0,0,0,0,0,0,0,0,0,0,0,0,0,0,0,0,0,0,0,0,0,0,0,0,0,0,0,0,0,0,0,0,0,0,0,0,0,0,0,0,0,0,0,0,0,0,0,0,0,0,0,0],"sum_hessian":[6.343E3,4.773E3,1.57E3,1.311E3,3.462E3,7.84E2,7.86E2,4.93E2,8.18E2,3.008E3,4.54E2,1.29E2,6.55E2,6.23E2,1.63E2,4.26E2,6.7E1,6.02E2,2.16E2,1.762E3,1.246E3,2.63E2,1.91E2,6.9E1,6E1,3.55E2,3E2,3.91E2,2.32E2,8.3E1,8E1,3.4E1,3.92E2,3.5E1,3.2E1,3.9E1,5.63E2,1.04E2,1.12E2,1.759E3,3E0,2.75E2,9.71E2,1.43E2,1.2E2,1.38E2,5.3E1,3.7E1,3.2E1,3.3E1,2.7E1,1.69E2,1.86E2,4.3E1,2.57E2,3.13E2,7.8E1,1.95E2,3.7E1,7.3E1,1E1,5E1,3E1,2.5E1,9E0,3.26E2,6.6E1,2.8E1,7E0,2E1,1.2E1,2.4E1,1.5E1,2E1,5.43E2,2.8E1,7.6E1,8.2E1,3E1,1.098E3,6.61E2,4E1,2.35E2,8.2E1,8.89E2,1E1,1.33E2,5.4E1,6.6E1,1.3E1,1.25E2,1.2E1,4.1E1,2.1E1,1.6E1,2.1E1,1.1E1,9E0,2.4E1,2.4E1,3E0,3.7E1,1.32E2,1.8E1,1.68E2,2.1E1,2.2E1,8E0,2.49E2,5E1,2.63E2,3E1,4.8E1,1.4E2,5.5E1,6E0,3.1E1,1.3E1,6E1,7E0,3E0,2.1E1,2.9E1,3E0,2.7E1],"tree_param":{"num_deleted":"0","num_feature":"1292","num_nodes":"125","size_leaf_vector":"0"}},{"base_weights":[2.7857641E1,2.5694555E1,3.0824488E1,2.796027E1,2.3850847E1,3.604635E1,2.852298E1,3.0509638E1,2.39378E1,2.6362999E1,2.2585539E1,4.3296547E1,3.26935E1,3.256695E1,2.6748705E1,3.6683674E1,2.8836172E1,2.3444813E1,4.437711E1,4.4237904E1,2.5578737E1,1.7937807E1,2.323052E1,5.0973484E1,3.496616E1,1.5837089E1,3.3617752E1,2.7845007E1,3.7791553E1,2.5647108E1,3.3711044E1,3.4199074E1,6.6703545E1,2.6831089E1,3.3540104E1,2.790047E1,2.1467497E1,5.325995E1,1.7736004E1,5.750367E1,2.2863722E1,2.8669867E1,2.2540913E1,1.202077E1,2.0443445E1,3.5221836E1,2.2868738E1,3.4454758E1,5.742193E1,1.6809778E1,3.868102E1,1.930063E1,1.2048532E0,3.492559E1,2.2989859E1,2.6903042E1,6.3295166E1,2.8301203E1,4.287268E1,5.0159386E1,2.5404264E1,3.9544434E1,2.280548E1,1.9502264E1,3.738397E1,7.259561E1,1.8936756E1,3.8875362E1,2.598027E1,4.0054077E1,2.9083584E1,1.2809307E1,2.9405306E1,3.7613735E1,2.0729671E1,6.344677E1,3.1739496E1,8.734758E0,3.5536892E1,3.661901E1,2.6194431E1,2.2019308E1,5.2250004E1,-2.8649473E0,1.3294399E1,1.3040848E1,2.2601578E1,4.6445286E1,2.5604326E1,2.4082016E1,1.9987295E1,4.839758E1,2.3723928E1,1.8675476E1,6.03931E1,2.3326458E1,-1.4178408E0,1.6176376E1,4.1751953E1,9.381572E0,2.4293755E1,2.2216232E0,-8.9138126E-1,4.2841076E1,3.232957E1,1.6635802E0,2.5286114E1,3.2182076E1,2.25544E1,2.4881855E1,5.8210316E1,3.2933758E1,5.074756E1,1.6391352E1,6.2289776E1,3.0665735E1,2.4283478E1,5.6740635E1,3.3685806E1,2.858475E1,1.2223135E1],"categories":[],"categories_nodes":[],"categories_segments":[],"categories_sizes":[],"default_left":[true,true,true,true,true,true,true,true,true,true,true,true,true,true,true,true,true,true,true,true,true,true,true,true,true,true,true,true,true,true,true,true,true,true,true,true,true,false,false,true,true,true,true,true,true,true,true,true,true,true,true,true,true,true,true,true,false,true,true,true,true,true,true,false,false,false,false,false,false,false,false,false,false,false,false,false,false,false,false,false,false,false,false,false,false,false,false,false,false,false,false,false,false,false,false,false,false,false,false,false,false,false,false,false,false,false,false,false,false,false,false,false,false,false,false,false,false,false,false,false,false],"id":6,"left_children":[1,3,5,7,9,11,13,15,17,19,21,23,25,27,29,31,33,35,37,39,41,43,45,47,49,51,53,55,57,59,61,63,65,67,69,71,73,-1,-1,75,77,79,81,83,85,87,89,91,93,95,97,99,101,103,105,107,-1,109,111,113,115,117,119,-1,-1,-1,-1,-1,-1,-1,-1,-1,-1,-1,-1,-1,-1,-1,-1,-1,-1,-1,-1,-1,-1,-1,-1,-1,-1,-1,-1,-1,-1,-1,-1,-1,-1,-1,-1,-1,-1,-1,-1,-1,-1,-1,-1,-1,-1,-1,-1,-1,-1,-1,-1,-1,-1,-1,-1,-1,-1],"loss_changes":[3.99205E4,1.4685E4,3.106025E4,1.611825E4,5.86675E3,1.83475E4,1.246025E4,9.294875E3,5.4285625E3,8.331E3,3.6571875E3,1.44614375E4,8.1921875E3,1.2812375E4,9.0830625E3,1.3382156E4,6.5795E3,4.9426875E3,2.368463E3,6.340965E3,5.4480938E3,2.274664E3,4.357E3,1.1869156E4,7.780828E3,1.5478066E3,6.5638125E3,8.281641E3,1.15171875E4,5.4164375E3,1.0167422E4,8.44525E3,2.8469453E3,4.7388438E3,5.5989844E3,3.9381719E3,4.462047E3,0E0,0E0,4.3613672E2,1.8382988E3,5.29825E3,3.9942969E3,1.0429087E3,1.5903984E3,2.372875E3,3.5670625E3,4.686926E3,9.463375E3,2.7650957E3,6.4429688E3,1.0102627E3,1.6900032E1,8.272875E3,2.9451406E3,6.000453E3,0E0,8.267234E3,1.16341875E4,3.0751797E3,5.8305E3,9.372203E3,3.5035703E3,0E0,0E0,0E0,0E0,0E0,0E0,0E0,0E0,0E0,0E0,0E0,0E0,0E0,0E0,0E0,0E0,0E0,0E0,0E0,0E0,0E0,0E0,0E0,0E0,0E0,0E0,0E0,0E0,0E0,0E0,0E0,0E0,0E0,0E0,0E0,0E0,0E0,0E0,0E0,0E0,0E0,0E0,0E0,0E0,0E0,0E0,0E0,0E0,0E0,0E0,0E0,0E0,0E0,0E0,0E0,0E0,0E0,0E0],"parents":[2147483647,0,0,1,1,2,2,3,3,4,4,5,5,6,6,7,7,8,8,9,9,10,10,11,11,12,12,13,13,14,14,15,15,16,16,17,17,18,18,19,19,20,20,21,21,22,22,23,23,24,24,25,25,26,26,27,27,28,28,29,29,30,30,31,31,32,32,33,33,34,34,35,35,36,36,39,39,40,40,41,41,42,42,43,43,44,44,45,45,46,46,47,47,48,48,49,49,50,50,51,51,52,52,53,53,54,54,55,55,57,57,58,58,59,59,60,60,61,61,62,62],"right_children":[2,4,6,8,10,12,14,16,18,20,22,24,26,28,30,32,34,36,38,40,42,44,46,48,50,52,54,56,58,60,62,64,66,68,70,72,74,-1,-1,76,78,80,82,84,86,88,90,92,94,96,98,100,102,104,106,108,-1,110,112,114,116,118,120,-1,-1,-1,-1,-1,-1,-1,-1,-1,-1,-1,-1,-1,-1,-1,-1,-1,-1,-1,-1,-1,-1,-1,-1,-1,-1,-1,-1,-1,-1,-1,-1,-1,-1,-1,-1,-1,-1,-1,-1,-1,-1,-1,-1,-1,-1,-1,-1,-1,-1,-1,-1,-1,-1,-1,-1,-1,-1],"split_conditions":[1.0546372E-1,1.3508557E-1,3.9795272E-2,2.3079138E-1,6.849234E-2,-1.23127885E-2,9.660104E-2,-3.9525855E-2,6.171489E-1,-5.7173926E-2,-7.69293E-2,1.4526612E-1,-1.069296E-1,1.3647239E-1,2.3275307E-1,6.867492E-1,2.5252777E-1,4.2560227E-2,7.9380885E-2,1.21183276E-1,1.8527979E-1,-4.193461E-2,-1.5886769E-1,1.2714276E-1,-2.7712972E-3,2.4464858E-1,2.6977634E-1,5.815929E-1,7.2088845E-2,-1.12435E-1,1.5329996E-1,2.9532287E-2,2.0669383E-1,-5.4171808E-2,4.6040148E-2,-8.79541E-2,-2.5973983E-2,2.6629975E0,8.868002E-1,3.282209E-1,3.394029E-1,-3.926975E-2,5.4153776E-1,1.1604087E-1,9.340634E-2,1.448968E-1,3.3425874E-1,1.21944964E-1,1.2876089E-1,3.3478373E-1,-7.353531E-2,1.0999362E-1,8.44318E-2,2.9694304E-2,-2.278369E-2,1.3178724E-1,3.1647584E0,5.782982E-1,1.9985905E-1,2.1380743E-1,-2.7278256E-2,-1.0029504E-1,2.1043186E-1,9.751132E-1,1.8691984E0,3.6297805E0,9.4683784E-1,1.9437681E0,1.2990135E0,2.002704E0,1.4541792E0,6.404654E-1,1.4702653E0,1.8806868E0,1.0364836E0,3.1723385E0,1.5869749E0,4.3673792E-1,1.7768446E0,1.8309506E0,1.3097216E0,1.1009654E0,2.6125002E0,-1.4324737E-1,6.6472E-1,6.520424E-1,1.1300789E0,2.3222644E0,1.2802163E0,1.2041008E0,9.993648E-1,2.419879E0,1.1861964E0,9.337738E-1,3.019655E0,1.166323E0,-7.089204E-2,8.088188E-1,2.0875976E0,4.690786E-1,1.2146877E0,1.1108116E-1,-4.4569064E-2,2.1420538E0,1.6164786E0,8.317901E-2,1.2643057E0,1.6091038E0,1.12772E0,1.2440928E0,2.9105158E0,1.6466879E0,2.537378E0,8.195676E-1,3.1144888E0,1.5332868E0,1.2141739E0,2.8370318E0,1.6842903E0,1.4292375E0,6.1115676E-1],"split_indices":[324,821,346,346,337,1076,1046,1189,831,621,1215,861,1125,537,426,373,167,1205,514,113,535,250,1288,187,952,1122,47,444,414,1274,844,1186,180,1204,1250,811,924,0,0,952,572,1019,689,61,1207,946,39,696,1278,223,1033,976,33,280,1217,694,0,604,1101,109,122,942,685,0,0,0,0,0,0,0,0,0,0,0,0,0,0,0,0,0,0,0,0,0,0,0,0,0,0,0,0,0,0,0,0,0,0,0,0,0,0,0,0,0,0,0,0,0,0,0,0,0,0,0,0,0,0,0,0,0,0],"split_type":[0,0,0,0,0,0,0,0,0,0,0,0,0,0,0,0,0,0,0,0,0,0,0,0,0,0,0,0,0,0,0,0,0,0,0,0,0,0,0,0,0,0,0,0,0,0,0,0,0,0,0,0,0,0,0,0,0,0,0,0,0,0,0,0,0,0,0,0,0,0,0,0,0,0,0,0,0,0,0,0,0,0,0,0,0,0,0,0,0,0,0,0,0,0,0,0,0,0,0,0,0,0,0,0,0,0,0,0,0,0,0,0,0,0,0,0,0,0,0,0,0],"sum_hessian":[6.343E3,3.674E3,2.669E3,1.642E3,2.032E3,8.12E2,1.857E3,1.001E3,6.41E2,6.74E2,1.358E3,2.53E2,5.59E2,5.61E2,1.296E3,2.09E2,7.92E2,6.28E2,1.3E1,2.6E1,6.48E2,1.69E2,1.189E3,1.29E2,1.24E2,3E1,5.29E2,2.98E2,2.63E2,1.123E3,1.73E2,1.95E2,1.4E1,5.6E2,2.32E2,1.89E2,4.39E2,9E0,4E0,1.5E1,1.1E1,3.17E2,3.31E2,5.2E1,1.17E2,3.2E1,1.157E3,3.8E1,9.1E1,2.2E1,1.02E2,2.4E1,6E0,4.69E2,6E1,2.92E2,6E0,9.4E1,1.69E2,9E0,1.114E3,1.11E2,6.2E1,3.6E1,1.59E2,1.2E1,2E0,3.4E1,5.26E2,9.1E1,1.41E2,1.8E1,1.71E2,1.7E1,4.22E2,1.1E1,4E0,6E0,5E0,7.2E1,2.45E2,3.27E2,4E0,4E0,4.8E1,2.8E1,8.9E1,1.3E1,1.9E1,8.09E2,3.48E2,1.5E1,2.3E1,7E0,8.4E1,1.6E1,6E0,1.3E1,8.9E1,9E0,1.5E1,4E0,2E0,1.12E2,3.57E2,6E0,5.4E1,1.29E2,1.63E2,8.6E1,8E0,7.7E1,9.2E1,3E0,6E0,1.91E2,9.23E2,2.6E1,8.5E1,3.9E1,2.3E1],"tree_param":{"num_deleted":"0","num_feature":"1292","num_nodes":"121","size_leaf_vector":"0"}},{"base_weights":[2.6479029E1,2.4421974E1,2.930045E1,3.058543E1,2.3782404E1,2.8619286E1,4.4460804E1,2.442811E1,3.4434723E1,2.2514063E1,2.6531387E1,2.613438E1,3.1526419E1,5.7287323E1,3.5451324E1,2.2574053E1,4.3276207E1,4.4458157E1,3.0449392E1,2.1615047E1,2.531565E1,3.1849333E1,2.3780544E1,2.7878878E1,2.2507427E1,3.4656017E1,2.7238405E1,2.4284796E1,6.272766E1,5.608892E1,3.0122551E1,1.2199955E1,2.5721663E1,1.8110968E1,5.5069065E1,4.7820732E1,1.3608215E1,1.9876772E1,3.4710056E1,2.111166E1,2.7085636E1,2.3631918E1,3.0851284E1,2.9488941E1,4.529463E1,2.6521685E1,2.0279377E1,2.4505816E1,3.0340677E1,2.1162338E1,3.0114664E1,3.1349773E1,4.1631855E1,2.6395706E1,5.1080322E1,6.615057E1,2.6906317E1,6.471052E1,2.9352253E1,5.20251E1,2.4931967E1,1.4384837E1,-2.0383976E0,1.5812181E1,2.8320133E1,5.492099E1,3.0389574E1,-3.3281803E0,1.6985645E1,-2.5783951E0,2.2678095E1,4.9065895E1,2.9496256E1,3.1369593E1,2.0861727E1,5.9116E1,2.5738604E1,2.7305758E1,2.0884945E1,2.5534649E1,4.0396156E1,2.7892538E1,4.618909E1,2.0091629E1,5.0951664E1,3.4053234E1,2.3473265E1,2.9838514E1,1.8663939E1,2.3445745E1,4.155765E1,2.5217327E1,3.3406605E1,3.896693E1,2.0494026E1,2.2193954E1,4.3051163E1,3.6051895E1,2.6532787E1,5.184124E1,3.6308952E1,2.5681358E1,4.706655E1,6.437631E1,2.4788862E1,6.807735E1,2.3548134E1,5.843854E1,-2.84793E0,2.8148687E1,1.1553118E1],"categories":[],"categories_nodes":[],"categories_segments":[],"categories_sizes":[],"default_left":[true,true,true,true,true,true,true,true,true,true,true,true,true,true,true,true,true,true,true,true,true,true,true,true,true,true,true,false,true,true,true,true,true,false,false,true,true,true,true,true,true,true,true,true,true,true,true,true,true,true,true,true,true,true,true,true,false,false,false,true,true,false,false,false,false,false,false,false,false,false,false,false,false,false,false,false,false,false,false,false,false,false,false,false,false,false,false,false,false,false,false,false,false,false,false,false,false,false,false,false,false,false,false,false,false,false,false,false,false,false,false],"id":7,"left_children":[1,3,5,7,9,11,13,15,17,19,21,23,25,27,29,31,33,35,37,39,41,43,45,47,49,51,53,-1,55,57,59,61,63,-1,-1,65,67,69,71,73,75,77,79,81,83,85,87,89,91,93,95,97,99,101,103,105,-1,-1,-1,107,109,-1,-1,-1,-1,-1,-1,-1,-1,-1,-1,-1,-1,-1,-1,-1,-1,-1,-1,-1,-1,-1,-1,-1,-1,-1,-1,-1,-1,-1,-1,-1,-1,-1,-1,-1,-1,-1,-1,-1,-1,-1,-1,-1,-1,-1,-1,-1,-1,-1,-1],"loss_changes":[3.61035E4,1.37595E4,2.629975E4,7.2646875E3,1.1027125E4,1.7654875E4,1.1027406E4,3.7407188E3,6.955203E3,5.2155E3,1.4559E4,8.13575E3,1.481075E4,6.5561875E3,5.8986016E3,3.7678984E3,2.2671172E3,5.2621562E3,6.157125E3,4.2170625E3,4.3971875E3,9.8989375E3,6.1225938E3,6.9873125E3,4.0184531E3,1.42629375E4,8.697469E3,0E0,2.8794531E3,1.0972656E3,5.1830703E3,9.937051E2,1.9983984E3,0E0,0E0,4.6430234E3,4.5694165E2,2.9520645E3,6.5615312E3,3.44E3,4.6483047E3,3.7288906E3,5.3118203E3,6.8163438E3,6.247586E3,8.0629688E3,4.2147344E3,6.2199375E3,7.5455625E3,3.8420312E3,5.807293E3,9.50775E3,9.74725E3,5.952875E3,3.9973203E3,1.1877969E3,0E0,0E0,0E0,3.6856777E3,1.7405234E3,0E0,0E0,0E0,0E0,0E0,0E0,0E0,0E0,0E0,0E0,0E0,0E0,0E0,0E0,0E0,0E0,0E0,0E0,0E0,0E0,0E0,0E0,0E0,0E0,0E0,0E0,0E0,0E0,0E0,0E0,0E0,0E0,0E0,0E0,0E0,0E0,0E0,0E0,0E0,0E0,0E0,0E0,0E0,0E0,0E0,0E0,0E0,0E0,0E0,0E0],"parents":[2147483647,0,0,1,1,2,2,3,3,4,4,5,5,6,6,7,7,8,8,9,9,10,10,11,11,12,12,13,13,14,14,15,15,16,16,17,17,18,18,19,19,20,20,21,21,22,22,23,23,24,24,25,25,26,26,28,28,29,29,30,30,31,31,32,32,35,35,36,36,37,37,38,38,39,39,40,40,41,41,42,42,43,43,44,44,45,45,46,46,47,47,48,48,49,49,50,50,51,51,52,52,53,53,54,54,55,55,59,59,60,60],"right_children":[2,4,6,8,10,12,14,16,18,20,22,24,26,28,30,32,34,36,38,40,42,44,46,48,50,52,54,-1,56,58,60,62,64,-1,-1,66,68,70,72,74,76,78,80,82,84,86,88,90,92,94,96,98,100,102,104,106,-1,-1,-1,108,110,-1,-1,-1,-1,-1,-1,-1,-1,-1,-1,-1,-1,-1,-1,-1,-1,-1,-1,-1,-1,-1,-1,-1,-1,-1,-1,-1,-1,-1,-1,-1,-1,-1,-1,-1,-1,-1,-1,-1,-1,-1,-1,-1,-1,-1,-1,-1,-1,-1,-1],"split_conditions":[1.0546372E-1,-5.7667173E-2,5.155734E-1,2.067363E-1,2.518174E-1,1.9833669E-1,1.0041517E-1,5.989256E-1,1.7032571E-2,3.241973E-1,1.575257E-2,1.9853728E-1,1.122251E-1,1.6163558E-1,-2.5706595E-2,-2.6732769E-2,6.7291476E-2,3.6113364E-1,1.07090645E-1,3.4632814E-1,1.809614E-1,2.3719242E-1,3.2847077E-1,1.8489785E-1,3.6912495E-1,3.3825928E-1,5.473875E-1,1.2142398E0,3.2670158E-1,1.660729E-1,-9.45995E-2,2.9604453E-1,-2.6669826E-2,9.055484E-1,2.7534533E0,3.6471906E-1,5E-1,-5.937781E-2,3.8563132E-2,-1.6319726E-2,-1.5494105E-1,4.406838E-2,1.7649537E-1,4.9430102E-1,-3.7279315E-2,2.530057E-2,9.566175E-3,3.9076763E-1,9.100829E-2,-3.1814622E-3,1.8311195E-1,-9.978367E-3,1.2522155E-1,6.419266E-1,1.10437445E-1,4.851988E-1,1.3453158E0,3.2355258E0,1.4676126E0,5E-1,4.8636618E-1,7.1924186E-1,-1.0191988E-1,7.9060906E-1,1.4160067E0,2.7460496E0,1.5194787E0,-1.6640902E-1,8.4928226E-1,-1.2891977E-1,1.1339048E0,2.4532948E0,1.4748129E0,1.5684797E0,1.0430864E0,2.9558E0,1.2869302E0,1.3652879E0,1.0442473E0,1.2767324E0,2.0198078E0,1.394627E0,2.3094547E0,1.0045815E0,2.5475833E0,1.7026618E0,1.1736633E0,1.4919257E0,9.3319696E-1,1.1722873E0,2.0778825E0,1.2608664E0,1.6703303E0,1.9483465E0,1.0247014E0,1.1096977E0,2.152558E0,1.8025948E0,1.3266394E0,2.592062E0,1.8154477E0,1.284068E0,2.3533275E0,3.2188156E0,1.2394432E0,3.4038675E0,1.1774067E0,2.9219272E0,-1.423965E-1,1.4074343E0,5.776559E-1],"split_indices":[324,454,417,1005,637,397,878,1042,609,1009,368,821,581,223,646,503,310,382,847,1045,502,571,1152,630,675,911,839,0,173,182,497,160,1158,0,0,749,1,1099,140,406,675,927,1156,190,729,847,929,1201,496,603,496,673,972,781,1275,35,0,0,0,7,158,0,0,0,0,0,0,0,0,0,0,0,0,0,0,0,0,0,0,0,0,0,0,0,0,0,0,0,0,0,0,0,0,0,0,0,0,0,0,0,0,0,0,0,0,0,0,0,0,0,0],"split_type":[0,0,0,0,0,0,0,0,0,0,0,0,0,0,0,0,0,0,0,0,0,0,0,0,0,0,0,0,0,0,0,0,0,0,0,0,0,0,0,0,0,0,0,0,0,0,0,0,0,0,0,0,0,0,0,0,0,0,0,0,0,0,0,0,0,0,0,0,0,0,0,0,0,0,0,0,0,0,0,0,0,0,0,0,0,0,0,0,0,0,0,0,0,0,0,0,0,0,0,0,0,0,0,0,0,0,0,0,0,0,0],"sum_hessian":[6.343E3,3.674E3,2.669E3,3.41E2,3.333E3,2.557E3,1.12E2,1.34E2,2.07E2,2.287E3,1.046E3,1.384E3,1.173E3,4.4E1,6.8E1,1.24E2,1E1,5.6E1,1.51E2,1.738E3,5.49E2,3.53E2,6.93E2,9.3E2,4.54E2,6.74E2,4.99E2,7E0,3.7E1,1.2E1,5.6E1,3E1,9.4E1,4E0,6E0,5E1,6E0,4.5E1,1.06E2,1.596E3,1.42E2,4.25E2,1.24E2,3.03E2,5E1,3.85E2,3.08E2,3.97E2,5.33E2,3.89E2,6.5E1,4.61E2,2.13E2,4.84E2,1.5E1,3.3E1,4E0,8E0,4E0,9E0,4.7E1,2.6E1,4E0,2.1E1,7.3E1,3.4E1,1.6E1,1E0,5E0,5E0,4E1,2.6E1,8E1,3.5E1,1.561E3,4E0,1.38E2,1.78E2,2.47E2,8.2E1,4.2E1,2.79E2,2.4E1,1E1,4E1,1.08E2,2.77E2,4.2E1,2.66E2,3.76E2,2.1E1,2.03E2,3.3E2,1.2E1,3.77E2,4.2E1,2.3E1,2.3E2,2.31E2,7E1,1.43E2,4.7E2,1.4E1,9E0,6E0,3.1E1,2E0,8E0,1E0,3.7E1,1E1],"tree_param":{"num_deleted":"0","num_feature":"1292","num_nodes":"111","size_leaf_vector":"0"}},{"base_weights":[2.5168655E1,2.3829374E1,2.9222483E1,2.2967512E1,2.8557074E1,2.5017393E1,3.3379753E1,2.2247293E1,2.6632113E1,2.4574549E1,3.3387455E1,2.8975372E1,2.1115751E1,3.8374775E1,2.8923687E1,3.723899E1,2.2070492E1,2.4642616E1,3.2439198E1,2.6366995E1,1.659677E1,4.307335E1,3.0141434E1,3.602662E1,2.5513847E1,2.8973707E1,1.9499762E1,4.5845886E1,3.1939342E1,3.2868668E1,2.3832518E1,4.5462997E1,1.7926441E1,2.2889507E1,1.933558E1,2.405482E1,4.8318855E1,2.6279394E1,4.1511517E1,3.7300457E1,2.445802E1,1.0217436E1,2.1149057E1,5.3747627E1,3.357674E1,4.004876E1,2.6923248E1,3.3091213E1,5.693654E1,8.027843E0,2.6614042E1,3.879792E1,1.8586277E1,1.8754864E1,4.1758938E1,5.0854145E1,3.0575935E1,2.3774183E1,3.8478027E1,3.5329876E1,1.6807064E1,2.8828217E1,1.6481754E1,1.4534041E1,5.0425808E1,2.3830757E1,1.12574005E1,2.407975E1,2.0542831E1,2.1554485E1,1.6918245E1,2.2359333E1,3.0960962E1,1.712872E1,3.2246876E1,4.7562347E1,2.0008213E1,4.202569E1,1.5614533E1,2.3190556E1,5.1149067E1,-5.4477143E0,1.3106175E1,2.9184233E1,1.64265E1,2.5763512E1,6.082296E1,1.7522928E1,4.0261597E1,4.7277122E1,2.0957651E1,3.0253712E1,1.7913485E1,1.19961815E1,3.5502655E1,6.10918E1,1.4590468E0,-2.3879862E0,1.5557723E1,3.470147E1,2.3833576E1,2.3269983E1,4.7727577E1,1.0290915E1,2.6276293E1,2.6015501E1,1.7371578E1,5.6577488E1,2.245032E1,5.469095E1,3.414127E1,2.4167557E1,5.281213E1,1.4650547E1,3.1832298E1,3.9838135E1,-7.5243483E0,4.6911016E0,3.6405674E1,2.214095E1,4.126482E0,4.3314507E1,2.512777E1,1.4081884E1,2.9818975E1],"categories":[],"categories_nodes":[],"categories_segments":[],"categories_sizes":[],"default_left":[true,true,true,true,true,true,true,true,true,true,true,true,true,true,true,true,true,true,true,true,true,true,true,true,true,true,true,true,true,true,true,true,true,true,true,true,false,true,true,true,true,true,true,true,true,true,true,true,true,true,true,true,true,true,true,true,true,true,true,true,true,true,true,false,false,false,false,false,false,false,false,false,false,false,false,false,false,false,false,false,false,false,false,false,false,false,false,false,false,false,false,false,false,false,false,false,false,false,false,false,false,false,false,false,false,false,false,false,false,false,false,false,false,false,false,false,false,false,false,false,false,false,false,false,false],"id":8,"left_children":[1,3,5,7,9,11,13,15,17,19,21,23,25,27,29,31,33,35,37,39,41,43,45,47,49,51,53,55,57,59,61,63,65,67,69,71,-1,73,75,77,79,81,83,85,87,89,91,93,95,97,99,101,103,105,107,109,111,113,115,117,119,121,123,-1,-1,-1,-1,-1,-1,-1,-1,-1,-1,-1,-1,-1,-1,-1,-1,-1,-1,-1,-1,-1,-1,-1,-1,-1,-1,-1,-1,-1,-1,-1,-1,-1,-1,-1,-1,-1,-1,-1,-1,-1,-1,-1,-1,-1,-1,-1,-1,-1,-1,-1,-1,-1,-1,-1,-1,-1,-1,-1,-1,-1,-1],"loss_changes":[3.37465E4,1.87965E4,2.6628625E4,1.007825E4,1.32610625E4,1.1510625E4,1.640725E4,8.15025E3,6.8141562E3,5.3537656E3,9.014219E3,8.526719E3,4.501672E3,1.6229125E4,7.6521875E3,5.220418E3,7.05675E3,5.7265312E3,8.1299062E3,5.9545E3,2.0200332E3,6.3048906E3,6.8607656E3,5.7882812E3,4.845953E3,6.014078E3,4.7548047E3,1.1293031E4,9.816484E3,8.6564375E3,6.391914E3,3.2579648E3,2.4361768E2,6.6865E3,3.808375E3,4.9867188E3,0E0,4.962914E3,7.5056953E3,4.159922E3,8.387703E3,1.6099851E3,1.1902539E3,5.560875E3,4.1237812E3,7.1510312E3,5.189328E3,5.2714844E3,3.1381953E3,1.3704606E3,4.7271875E3,3.4651367E3,1.8985029E3,2.812211E3,1.5910742E3,6.1482812E3,4.9935703E3,6.297418E3,7.1822656E3,6.4873594E3,2.1406494E3,4.8082344E3,2.0766855E3,0E0,0E0,0E0,0E0,0E0,0E0,0E0,0E0,0E0,0E0,0E0,0E0,0E0,0E0,0E0,0E0,0E0,0E0,0E0,0E0,0E0,0E0,0E0,0E0,0E0,0E0,0E0,0E0,0E0,0E0,0E0,0E0,0E0,0E0,0E0,0E0,0E0,0E0,0E0,0E0,0E0,0E0,0E0,0E0,0E0,0E0,0E0,0E0,0E0,0E0,0E0,0E0,0E0,0E0,0E0,0E0,0E0,0E0,0E0,0E0,0E0,0E0],"parents":[2147483647,0,0,1,1,2,2,3,3,4,4,5,5,6,6,7,7,8,8,9,9,10,10,11,11,12,12,13,13,14,14,15,15,16,16,17,17,18,18,19,19,20,20,21,21,22,22,23,23,24,24,25,25,26,26,27,27,28,28,29,29,30,30,31,31,32,32,33,33,34,34,35,35,37,37,38,38,39,39,40,40,41,41,42,42,43,43,44,44,45,45,46,46,47,47,48,48,49,49,50,50,51,51,52,52,53,53,54,54,55,55,56,56,57,57,58,58,59,59,60,60,61,61,62,62],"right_children":[2,4,6,8,10,12,14,16,18,20,22,24,26,28,30,32,34,36,38,40,42,44,46,48,50,52,54,56,58,60,62,64,66,68,70,72,-1,74,76,78,80,82,84,86,88,90,92,94,96,98,100,102,104,106,108,110,112,114,116,118,120,122,124,-1,-1,-1,-1,-1,-1,-1,-1,-1,-1,-1,-1,-1,-1,-1,-1,-1,-1,-1,-1,-1,-1,-1,-1,-1,-1,-1,-1,-1,-1,-1,-1,-1,-1,-1,-1,-1,-1,-1,-1,-1,-1,-1,-1,-1,-1,-1,-1,-1,-1,-1,-1,-1,-1,-1,-1,-1,-1,-1,-1,-1,-1],"split_conditions":[4.0184158E-1,2.6859266E-1,2.375418E-1,4.2064002E-1,2.3585834E-1,1.8254381E-1,2.0608208E-1,-5.8262125E-2,1.9532079E-1,3.3602703E-1,2.0467438E-2,1.2984645E-1,-1.7988987E-2,1.8938534E-2,2.2358313E-1,2.175415E-1,3.4441587E-1,6.391077E-1,1.6403876E-1,-3.603533E-2,2.3328069E-1,1.01605654E-1,-3.53957E-2,5.107184E-1,-2.222667E-3,2.1074477E-1,6.6942793E-1,1.6826549E-1,1.1791816E-1,4.1375232E-1,1.3770029E-1,-2.676874E-2,-8.094713E-3,3.1009525E-1,3.0605432E-1,2.9227978E-1,2.415943E0,-5.2235514E-2,3.5899633E-1,4.1614956E-1,5.81251E-1,7.48786E-2,1.0612996E-1,-9.292939E-2,1.010977E-1,1.7632708E-1,3.23491E-1,-1.2349827E-1,3.179708E-1,7.8955844E-2,8.7586045E-2,1.4984564E-1,3.2803994E-1,-1.6698077E-1,1.7937198E-2,3.4701303E-1,2.8676152E-1,1.1952932E-1,5.1529473E-1,5.75634E-2,3.0848706E-1,-8.39515E-2,2.7958474E-1,7.267021E-1,2.5212905E0,1.1915379E0,5.6287E-1,1.2039875E0,1.0271416E0,1.0777243E0,8.459123E-1,1.1179667E0,1.5480481E0,8.5643595E-1,1.6123438E0,2.3781173E0,1.0004107E0,2.1012845E0,7.807267E-1,1.1595278E0,2.5574534E0,-2.7238572E-1,6.553088E-1,1.4592117E0,8.21325E-1,1.2881756E0,3.041148E0,8.7614644E-1,2.01308E0,2.363856E0,1.0478826E0,1.5126857E0,8.956742E-1,5.998091E-1,1.7751328E0,3.05459E0,7.2952345E-2,-1.1939931E-1,7.7788615E-1,1.7350734E0,1.1916789E0,1.1634992E0,2.386379E0,5.1454574E-1,1.3138146E0,1.300775E0,8.685789E-1,2.8288743E0,1.122516E0,2.7345474E0,1.7070636E0,1.2083778E0,2.6406066E0,7.325274E-1,1.591615E0,1.9919068E0,-3.7621742E-1,2.3455508E-1,1.8202838E0,1.1070474E0,2.063241E-1,2.1657255E0,1.2563885E0,7.0409423E-1,1.4909488E0],"split_indices":[879,324,223,831,798,814,66,259,68,278,66,724,840,1187,724,392,821,850,878,769,599,919,336,1182,579,1267,1233,1117,435,1281,454,435,163,234,1046,535,0,927,184,807,1214,761,253,622,1230,707,486,810,16,547,1039,299,451,279,214,921,798,922,697,388,323,600,326,0,0,0,0,0,0,0,0,0,0,0,0,0,0,0,0,0,0,0,0,0,0,0,0,0,0,0,0,0,0,0,0,0,0,0,0,0,0,0,0,0,0,0,0,0,0,0,0,0,0,0,0,0,0,0,0,0,0,0,0,0,0],"split_type":[0,0,0,0,0,0,0,0,0,0,0,0,0,0,0,0,0,0,0,0,0,0,0,0,0,0,0,0,0,0,0,0,0,0,0,0,0,0,0,0,0,0,0,0,0,0,0,0,0,0,0,0,0,0,0,0,0,0,0,0,0,0,0,0,0,0,0,0,0,0,0,0,0,0,0,0,0,0,0,0,0,0,0,0,0,0,0,0,0,0,0,0,0,0,0,0,0,0,0,0,0,0,0,0,0,0,0,0,0,0,0,0,0,0,0,0,0,0,0,0,0,0,0,0,0],"sum_hessian":[6.343E3,4.773E3,1.57E3,4.042E3,7.31E2,7.84E2,7.86E2,3.384E3,6.58E2,4.04E2,3.27E2,3.86E2,3.98E2,3.67E2,4.19E2,3.7E1,3.347E3,4.94E2,1.64E2,3.28E2,7.6E1,7.9E1,2.48E2,1.24E2,2.62E2,6.5E1,3.33E2,1.67E2,2E2,2.33E2,1.86E2,2.5E1,1.2E1,2.57E3,7.77E2,4.84E2,1E1,1E2,6.4E1,4.6E1,2.82E2,3.3E1,4.3E1,3.5E1,4.4E1,5.8E1,1.9E2,1.11E2,1.3E1,1.6E1,2.46E2,3.2E1,3.3E1,3.24E2,9E0,1.24E2,4.3E1,9.1E1,1.09E2,2.01E2,3.2E1,1.09E2,7.7E1,4E0,2.1E1,5E0,7E0,1.699E3,8.71E2,4.01E2,3.76E2,3.92E2,9.2E1,4.1E1,5.9E1,4.9E1,1.5E1,3.7E1,9E0,2.71E2,1.1E1,5E0,2.8E1,1.4E1,2.9E1,8E0,2.7E1,1.4E1,3E1,4.1E1,1.7E1,1.37E2,5.3E1,1.2E1,9.9E1,1.2E1,1E0,7E0,9E0,6E1,1.86E2,1.3E1,1.9E1,1.7E1,1.6E1,4.9E1,2.75E2,4E0,5E0,9.9E1,2.5E1,3.5E1,8E0,4.4E1,4.7E1,1.06E2,3E0,7E0,1.94E2,2.2E1,1E1,2E1,8.9E1,6.7E1,1E1],"tree_param":{"num_deleted":"0","num_feature":"1292","num_nodes":"125","size_leaf_vector":"0"}},{"base_weights":[2.3923492E1,2.2723143E1,2.8111572E1,2.172458E1,2.6125637E1,2.5539522E1,3.4886223E1,2.5714148E1,2.0818687E1,2.3195652E1,2.9350754E1,2.8316717E1,2.0907074E1,3.8726242E1,2.4934118E1,2.1958292E1,2.9821379E1,1.8749998E1,2.194541E1,2.2463669E1,4.1039787E1,4.152782E1,2.7726875E1,2.525182E1,3.45314E1,1.8575396E1,2.7526058E1,2.1807676E1,4.192766E1,1.6950193E1,3.0200678E1,2.626159E1,1.7675426E1,2.7650444E1,3.9434696E1,2.1205317E1,1.6938583E1,2.9496042E1,2.1472626E1,2.1679152E1,4.094854E1,5.232725E1,2.22621E1,5.3559364E1,2.6819641E1,1.67937E1,2.9262972E1,1.6911592E1,2.7162958E1,3.1774178E1,5.1121605E1,1.7835129E1,4.2440453E1,1.5227879E1,3.2403477E1,2.8614655E1,8.512558E0,4.9553E1,3.293826E1,1.021592E1,2.598227E1,1.2926541E1,3.3480103E1,3.5945232E1,2.2650732E1,2.0517519E1,1.1065432E1,2.4364534E1,3.4958035E1,5.5952824E1,3.1416578E1,1.9808483E1,2.9089607E1,1.6445423E1,3.0738878E1,2.407956E1,4.4220642E1,2.4405167E1,2.0529005E1,2.1084934E1,3.7082428E1,2.1205536E1,5.2985577E1,2.8413933E1,6.3721336E1,1.2997605E1,2.6272163E1,5.960863E1,8.971596E0,1.7577555E1,3.6842396E1,2.8744965E1,1.2876435E1,2.5574295E1,3.4147095E1,2.9841743E1,1.3620504E1,2.7912754E1,1.5862335E0,2.3508856E1,3.794527E1,1.6630674E1,5.7896557E1,1.4821224E1,2.204634E1,6.3001175E0,5.343721E1,2.0096878E1,-6.739783E-1,3.7230305E1,1.748777E1,3.5717743E1,1.3098614E1,-2.339986E0,1.6343336E1,3.0584642E1,5.2724293E1,2.9478193E1,5.6221966E1,1.4889785E1,-1.3055465E0,3.1432621E1,8.934402E0,-7.7740693E-1,1.7580902E1,3.9094273E1,2.0079857E1],"categories":[],"categories_nodes":[],"categories_segments":[],"categories_sizes":[],"default_left":[true,true,true,true,true,true,true,true,true,true,true,true,true,true,true,true,true,true,true,true,true,true,true,true,true,true,true,true,true,true,true,true,true,true,true,true,true,true,true,true,true,true,true,true,true,true,true,true,true,true,true,true,true,true,true,true,true,true,true,true,true,true,true,false,false,false,false,false,false,false,false,false,false,false,false,false,false,false,false,false,false,false,false,false,false,false,false,false,false,false,false,false,false,false,false,false,false,false,false,false,false,false,false,false,false,false,false,false,false,false,false,false,false,false,false,false,false,false,false,false,false,false,false,false,false,false,false],"id":9,"left_children":[1,3,5,7,9,11,13,15,17,19,21,23,25,27,29,31,33,35,37,39,41,43,45,47,49,51,53,55,57,59,61,63,65,67,69,71,73,75,77,79,81,83,85,87,89,91,93,95,97,99,101,103,105,107,109,111,113,115,117,119,121,123,125,-1,-1,-1,-1,-1,-1,-1,-1,-1,-1,-1,-1,-1,-1,-1,-1,-1,-1,-1,-1,-1,-1,-1,-1,-1,-1,-1,-1,-1,-1,-1,-1,-1,-1,-1,-1,-1,-1,-1,-1,-1,-1,-1,-1,-1,-1,-1,-1,-1,-1,-1,-1,-1,-1,-1,-1,-1,-1,-1,-1,-1,-1,-1,-1],"loss_changes":[3.12535E4,1.6203E4,2.36605E4,1.3277875E4,9.8554375E3,1.25948125E4,1.3747656E4,1.018975E4,6.86075E3,6.7714062E3,9.2695E3,1.1280219E4,5.4768125E3,1.403475E4,4.1133516E3,6.3735156E3,5.8592812E3,4.5643125E3,6.5563125E3,7.3492188E3,3.498039E3,9.181281E3,7.3683438E3,6.4105E3,7.8901562E3,4.366375E3,5.444922E3,3.9193984E3,1.4202219E4,2.5324922E3,3.249418E3,5.5846406E3,3.3235625E3,5.751578E3,6.0563594E3,4.5558594E3,3.8637812E3,8.186828E3,4.7539375E3,4.2247656E3,4.1046523E3,1.7315391E3,3.0036621E1,8.0963594E3,2.038707E3,2.4388438E3,6.49525E3,3.125545E3,6.6486406E3,8.340047E3,5.5800312E3,3.2651328E3,2.842751E3,2.3363286E3,4.3886094E3,2.838502E3,1.482969E3,5.7864062E3,7.1240625E3,1.5272327E3,1.4845889E3,7.7906506E2,3.2774805E3,0E0,0E0,0E0,0E0,0E0,0E0,0E0,0E0,0E0,0E0,0E0,0E0,0E0,0E0,0E0,0E0,0E0,0E0,0E0,0E0,0E0,0E0,0E0,0E0,0E0,0E0,0E0,0E0,0E0,0E0,0E0,0E0,0E0,0E0,0E0,0E0,0E0,0E0,0E0,0E0,0E0,0E0,0E0,0E0,0E0,0E0,0E0,0E0,0E0,0E0,0E0,0E0,0E0,0E0,0E0,0E0,0E0,0E0,0E0,0E0,0E0,0E0,0E0,0E0],"parents":[2147483647,0,0,1,1,2,2,3,3,4,4,5,5,6,6,7,7,8,8,9,9,10,10,11,11,12,12,13,13,14,14,15,15,16,16,17,17,18,18,19,19,20,20,21,21,22,22,23,23,24,24,25,25,26,26,27,27,28,28,29,29,30,30,31,31,32,32,33,33,34,34,35,35,36,36,37,37,38,38,39,39,40,40,41,41,42,42,43,43,44,44,45,45,46,46,47,47,48,48,49,49,50,50,51,51,52,52,53,53,54,54,55,55,56,56,57,57,58,58,59,59,60,60,61,61,62,62],"right_children":[2,4,6,8,10,12,14,16,18,20,22,24,26,28,30,32,34,36,38,40,42,44,46,48,50,52,54,56,58,60,62,64,66,68,70,72,74,76,78,80,82,84,86,88,90,92,94,96,98,100,102,104,106,108,110,112,114,116,118,120,122,124,126,-1,-1,-1,-1,-1,-1,-1,-1,-1,-1,-1,-1,-1,-1,-1,-1,-1,-1,-1,-1,-1,-1,-1,-1,-1,-1,-1,-1,-1,-1,-1,-1,-1,-1,-1,-1,-1,-1,-1,-1,-1,-1,-1,-1,-1,-1,-1,-1,-1,-1,-1,-1,-1,-1,-1,-1,-1,-1,-1,-1,-1,-1,-1,-1],"split_conditions":[3.877172E-1,1.9759378E-1,2.6491076E-1,-1.453694E-2,1.9363558E-1,2.0788556E-1,2.7647275E-1,1.9934717E-1,4.6965815E-2,7.712943E-1,-8.666131E-2,1.8165484E-1,1.7728074E-1,3.814303E-2,1.7391759E-1,1.9247553E-1,3.590526E-1,1.7121327E-1,-3.970853E-3,9.4026244E-1,1.2505059E-1,1.684557E-1,2.9179271E-2,4.5564085E-2,3.0945295E-1,6.7819977E-1,-2.8688568E-3,2.6342702E-1,2.2430608E-1,1.5419987E-1,2.0292583E-1,7.605019E-2,2.6287037E-1,3.0449563E-1,3.4013078E-2,3.8295224E-1,7.729499E-1,1.9766685E-1,-2.8894033E-2,6.897924E-1,1.5442246E-1,-4.0240657E-2,1.1788209E-1,2.4457675E-1,2.393759E-1,1.0276386E-1,2.2412768E-1,-4.473663E-3,4.4816256E-1,2.2761571E-1,9.593588E-2,1.892632E-1,5E-1,1.8177697E-1,2.4954912E-1,1.2915164E-1,-3.059981E-2,3.4388673E-2,4.9624822E-1,6.199566E-1,2.0187576E-1,1.3523519E-1,2.4660304E-1,1.7972616E0,1.1325366E0,1.0258759E0,5.532716E-1,1.2182268E0,1.7479018E0,2.7976413E0,1.5708289E0,9.9042416E-1,1.4544804E0,8.2227117E-1,1.5369439E0,1.203978E0,2.2110322E0,1.2202584E0,1.0264503E0,1.0542468E0,1.8541214E0,1.0602769E0,2.6492789E0,1.4206966E0,3.1860669E0,6.498803E-1,1.3136082E0,2.9804316E0,4.485798E-1,8.7887776E-1,1.8421198E0,1.4372482E0,6.438218E-1,1.2787148E0,1.7073548E0,1.4920872E0,6.810252E-1,1.3956378E0,7.931168E-2,1.1754428E0,1.8972635E0,8.3153373E-1,2.8948278E0,7.410612E-1,1.1023171E0,3.1500587E-1,2.6718605E0,1.004844E0,-3.3698916E-2,1.8615153E0,8.743885E-1,1.7858871E0,6.549307E-1,-1.16999306E-1,8.171668E-1,1.5292321E0,2.6362147E0,1.4739097E0,2.8110983E0,7.4448925E-1,-6.527733E-2,1.5716311E0,4.4672012E-1,-3.8870346E-2,8.790451E-1,1.9547137E0,1.0039929E0],"split_indices":[637,324,361,454,397,278,252,652,1120,1005,769,1280,1067,720,972,1234,1193,1014,282,937,818,1117,45,648,362,879,594,513,485,660,630,34,1237,1199,280,854,1196,843,1152,1241,1248,785,62,920,12,392,937,329,688,94,1274,242,3,943,997,1133,1109,324,62,1229,34,71,21,0,0,0,0,0,0,0,0,0,0,0,0,0,0,0,0,0,0,0,0,0,0,0,0,0,0,0,0,0,0,0,0,0,0,0,0,0,0,0,0,0,0,0,0,0,0,0,0,0,0,0,0,0,0,0,0,0,0,0,0,0,0,0,0],"split_type":[0,0,0,0,0,0,0,0,0,0,0,0,0,0,0,0,0,0,0,0,0,0,0,0,0,0,0,0,0,0,0,0,0,0,0,0,0,0,0,0,0,0,0,0,0,0,0,0,0,0,0,0,0,0,0,0,0,0,0,0,0,0,0,0,0,0,0,0,0,0,0,0,0,0,0,0,0,0,0,0,0,0,0,0,0,0,0,0,0,0,0,0,0,0,0,0,0,0,0,0,0,0,0,0,0,0,0,0,0,0,0,0,0,0,0,0,0,0,0,0,0,0,0,0,0,0,0],"sum_hessian":[6.343E3,4.935E3,1.408E3,3.821E3,1.114E3,1.024E3,3.84E2,7.02E2,3.119E3,5.88E2,5.26E2,6.37E2,3.87E2,2.75E2,1.09E2,3.7E2,3.32E2,1.106E3,2.013E3,5.67E2,2.1E1,5.9E1,4.67E2,4.3E2,2.07E2,2.89E2,9.8E1,4.5E1,2.3E2,4.5E1,6.4E1,1.82E2,1.88E2,2.74E2,5.8E1,4.65E2,6.41E2,1.15E2,1.898E3,5.46E2,2.1E1,1.2E1,9E0,3.1E1,2.8E1,5.9E1,4.08E2,8.2E1,3.48E2,1.8E2,2.7E1,2.82E2,7E0,2.9E1,6.9E1,2.9E1,1.6E1,1.22E2,1.08E2,2.7E1,1.8E1,1.1E1,5.3E1,4.7E1,1.35E2,1.3E2,5.8E1,1.92E2,8.2E1,1.7E1,4.1E1,3.98E2,6.7E1,6.21E2,2E1,8.6E1,2.9E1,4.56E2,1.442E3,5.28E2,1.8E1,9E0,1.2E1,5E0,7E0,4E0,5E0,2.7E1,4E0,1.6E1,1.2E1,1.3E1,4.6E1,2.36E2,1.72E2,1.5E1,6.7E1,3.38E2,1E1,7.9E1,1.01E2,5E0,2.2E1,1.67E2,1.15E2,2E0,5E0,2.2E1,7E0,5.1E1,1.8E1,1.9E1,1E1,7E0,9E0,1.9E1,1.03E2,9.6E1,1.2E1,1.9E1,8E0,1.3E1,5E0,3E0,8E0,3.6E1,1.7E1],"tree_param":{"num_deleted":"0","num_feature":"1292","num_nodes":"127","size_leaf_vector":"0"}},{"base_weights":[2.2740526E1,2.4981611E1,2.0570826E1,2.9266848E1,2.3111343E1,1.9655012E1,2.4392931E1,3.3046925E1,2.4250692E1,2.1730143E1,2.7586725E1,2.1097809E1,1.747408E1,2.320955E1,3.6127483E1,2.780818E1,4.065503E1,2.7979177E1,1.9054295E1,2.0689949E1,2.6656057E1,2.4910105E1,3.5278244E1,1.9258482E1,2.3194006E1,1.96305E1,1.5607328E1,2.2039389E1,3.2710587E1,4.3326668E1,2.020657E1,3.1257898E1,2.0342823E1,4.500891E1,2.8854038E1,3.0075926E1,1.4637445E1,3.053227E1,1.6831594E1,2.0257757E1,3.397606E1,2.5345291E1,5.2333363E1,4.5341896E1,2.3831308E1,1.0742257E1,3.7702938E1,1.684457E1,2.1225489E1,3.6463844E1,2.2306482E1,1.8398035E1,2.7101341E1,1.4891739E1,2.354543E1,2.0588558E1,2.9525839E1,2.0949154E1,4.1698753E1,5.4537606E0,4.650799E1,7.385436E0,2.4258017E1,4.054026E1,2.6270725E1,1.5246189E1,2.9954866E1,2.7605446E1,4.8277256E1,5.4777878E1,2.5030022E1,2.8851162E1,6.024767E1,7.5170975E0,2.3155413E1,3.9112244E1,1.6547955E1,2.689384E1,1.4259622E1,2.2341318E1,1.8300756E1,1.4501747E1,4.128239E1,2.8614126E1,1.7162968E1,5.7986835E1,1.415951E1,1.8328981E1,5.732094E1,2.9825344E1,2.118607E1,1.8027004E1,1.9229023E0,1.072146E1,4.040176E1,1.6409025E1,4.6402878E1,2.0264366E1,3.4777863E1,1.8258797E1,4.3509228E1,1.9273344E1,2.548299E1,3.2906456E1,1.7735432E1,2.4329275E1,5.0767136E1,1.4655533E1,4.175757E1,3.578942E1,1.853151E1,1.9752907E1,3.5112267E1,4.1006397E1,2.3238785E1,2.9251047E1,9.119968E0,4.6472862E1,1.246977E1,7.367338E0,-1.4348602E-1,2.2314764E1,5.30938E1,-1.0166698E0,9.269191E0],"categories":[],"categories_nodes":[],"categories_segments":[],"categories_sizes":[],"default_left":[true,true,true,true,true,true,true,true,true,true,true,true,true,true,true,true,true,true,true,true,true,true,true,true,true,true,true,true,true,true,true,true,true,true,true,true,true,true,true,true,true,true,true,true,true,true,true,true,true,true,true,true,true,true,true,true,true,true,true,true,true,true,false,false,false,false,false,false,false,false,false,false,false,false,false,false,false,false,false,false,false,false,false,false,false,false,false,false,false,false,false,false,false,false,false,false,false,false,false,false,false,false,false,false,false,false,false,false,false,false,false,false,false,false,false,false,false,false,false,false,false,false,false,false,false],"id":10,"left_children":[1,3,5,7,9,11,13,15,17,19,21,23,25,27,29,31,33,35,37,39,41,43,45,47,49,51,53,55,57,59,61,63,65,67,69,71,73,75,77,79,81,83,85,87,89,91,93,95,97,99,101,103,105,107,109,111,113,115,117,119,121,123,-1,-1,-1,-1,-1,-1,-1,-1,-1,-1,-1,-1,-1,-1,-1,-1,-1,-1,-1,-1,-1,-1,-1,-1,-1,-1,-1,-1,-1,-1,-1,-1,-1,-1,-1,-1,-1,-1,-1,-1,-1,-1,-1,-1,-1,-1,-1,-1,-1,-1,-1,-1,-1,-1,-1,-1,-1,-1,-1,-1,-1,-1,-1],"loss_changes":[3.033375E4,2.4297E4,1.0823125E4,1.707925E4,1.2838875E4,7.844125E3,7.7710625E3,2.0192875E4,7.391125E3,7.9849375E3,9.600125E3,5.5911875E3,3.90025E3,5.5717188E3,5.4284844E3,7.605203E3,9.799406E3,6.1616875E3,3.9251992E3,7.235875E3,8.333141E3,7.3173594E3,7.2695E3,3.6309375E3,7.7487188E3,3.9302344E3,2.8588125E3,4.898922E3,5.4692656E3,4.204336E3,8.0778174E2,8.9805E3,4.638164E3,7.5406562E3,4.676035E3,5.7632812E3,1.8880693E3,2.5923691E3,3.4467188E3,5.051E3,5.377336E3,6.86425E3,1.9845273E3,4.773965E3,5.139578E3,8.005437E2,8.0865625E3,4.1564297E3,5.273953E3,4.849082E3,6.0990625E3,3.4155312E3,3.0946836E3,2.6942266E3,2.099336E3,4.5009688E3,4.821375E3,2.482961E3,4.0253984E3,4.3900185E1,4.2325156E3,1.0438876E2,0E0,0E0,0E0,0E0,0E0,0E0,0E0,0E0,0E0,0E0,0E0,0E0,0E0,0E0,0E0,0E0,0E0,0E0,0E0,0E0,0E0,0E0,0E0,0E0,0E0,0E0,0E0,0E0,0E0,0E0,0E0,0E0,0E0,0E0,0E0,0E0,0E0,0E0,0E0,0E0,0E0,0E0,0E0,0E0,0E0,0E0,0E0,0E0,0E0,0E0,0E0,0E0,0E0,0E0,0E0,0E0,0E0,0E0,0E0,0E0,0E0,0E0,0E0],"parents":[2147483647,0,0,1,1,2,2,3,3,4,4,5,5,6,6,7,7,8,8,9,9,10,10,11,11,12,12,13,13,14,14,15,15,16,16,17,17,18,18,19,19,20,20,21,21,22,22,23,23,24,24,25,25,26,26,27,27,28,28,29,29,30,30,31,31,32,32,33,33,34,34,35,35,36,36,37,37,38,38,39,39,40,40,41,41,42,42,43,43,44,44,45,45,46,46,47,47,48,48,49,49,50,50,51,51,52,52,53,53,54,54,55,55,56,56,57,57,58,58,59,59,60,60,61,61],"right_children":[2,4,6,8,10,12,14,16,18,20,22,24,26,28,30,32,34,36,38,40,42,44,46,48,50,52,54,56,58,60,62,64,66,68,70,72,74,76,78,80,82,84,86,88,90,92,94,96,98,100,102,104,106,108,110,112,114,116,118,120,122,124,-1,-1,-1,-1,-1,-1,-1,-1,-1,-1,-1,-1,-1,-1,-1,-1,-1,-1,-1,-1,-1,-1,-1,-1,-1,-1,-1,-1,-1,-1,-1,-1,-1,-1,-1,-1,-1,-1,-1,-1,-1,-1,-1,-1,-1,-1,-1,-1,-1,-1,-1,-1,-1,-1,-1,-1,-1,-1,-1,-1,-1,-1,-1],"split_conditions":[2.0528737E-1,3.858588E-2,3.0006796E-1,1.8972869E-1,4.0610912E-1,2.0161119E-1,4.2057768E-1,2.2814626E-1,2.4090943E-1,4.1948575E-1,2.6810247E-1,1.12534076E-1,2.0845842E-1,4.7635967E-1,1.6381213E-1,2.4306354E-1,3.116768E-1,1.850746E-1,8.8597864E-2,8.535313E-1,7.2737396E-1,-1.3163286E-1,-4.9934804E-2,1.5654337E-1,-3.365296E-2,5.800581E-1,3.4630233E-1,4.0712819E-1,1.4442214E-1,1.0344747E-1,2.97359E-2,5.307874E-2,5.546868E-1,-5.069839E-3,9.37599E-3,6.336058E-1,1.18943155E-1,9.4036676E-2,8.4281385E-2,1.2205582E-1,2.5233534E-1,3.5891402E-1,3.992141E-1,3.0489776E-1,1.5896666E-1,1.9882031E-1,-8.054141E-2,7.3730016E-1,5.6446767E-1,7.807991E-2,1.5794034E-1,-1.09045826E-1,5.437357E-1,7.428574E-1,7.263972E-2,3.581041E-1,1.4590454E-1,3.0634266E-1,3.5667837E-1,2.0400822E-1,1.4826858E-1,6.0634773E-2,1.2129009E0,2.027013E0,1.3135363E0,7.623095E-1,1.4977434E0,1.3802723E0,2.413863E0,2.738894E0,1.2515011E0,1.4425582E0,3.0123835E0,3.7585488E-1,1.1577706E0,1.9556122E0,8.2739776E-1,1.3446921E0,7.129811E-1,1.1170659E0,9.150378E-1,7.2508734E-1,2.0641196E0,1.4307064E0,8.581484E-1,2.8993418E0,7.079755E-1,9.1644907E-1,2.866047E0,1.4912672E0,1.0593035E0,9.013502E-1,9.6145116E-2,5.36073E-1,2.020088E0,8.2045126E-1,2.320144E0,1.0132183E0,1.7388932E0,9.1293985E-1,2.1754615E0,9.636672E-1,1.2741495E0,1.6453228E0,8.867716E-1,1.2164638E0,2.5383568E0,7.3277664E-1,2.0878785E0,1.789471E0,9.265755E-1,9.876453E-1,1.7556133E0,2.05032E0,1.1619393E0,1.4625524E0,4.5599842E-1,2.3236432E0,6.2348855E-1,3.6836693E-1,-7.1743014E-3,1.1157383E0,2.65469E0,-5.083349E-2,4.6345955E-1],"split_indices":[1188,346,1185,252,879,390,638,1095,728,1233,611,665,1155,690,1159,1206,1224,110,1039,455,907,459,361,399,612,542,662,315,678,964,97,479,100,21,1054,362,868,235,608,518,907,398,57,134,934,1263,599,491,1058,24,561,518,522,1274,151,1231,1234,1079,193,15,254,12,0,0,0,0,0,0,0,0,0,0,0,0,0,0,0,0,0,0,0,0,0,0,0,0,0,0,0,0,0,0,0,0,0,0,0,0,0,0,0,0,0,0,0,0,0,0,0,0,0,0,0,0,0,0,0,0,0,0,0,0,0,0,0],"split_type":[0,0,0,0,0,0,0,0,0,0,0,0,0,0,0,0,0,0,0,0,0,0,0,0,0,0,0,0,0,0,0,0,0,0,0,0,0,0,0,0,0,0,0,0,0,0,0,0,0,0,0,0,0,0,0,0,0,0,0,0,0,0,0,0,0,0,0,0,0,0,0,0,0,0,0,0,0,0,0,0,0,0,0,0,0,0,0,0,0,0,0,0,0,0,0,0,0,0,0,0,0,0,0,0,0,0,0,0,0,0,0,0,0,0,0,0,0,0,0,0,0,0,0,0,0],"sum_hessian":[6.343E3,3.115E3,3.228E3,9.42E2,2.173E3,2.609E3,6.19E2,5.34E2,4.08E2,1.665E3,5.08E2,1.565E3,1.044E3,5.65E2,5.4E1,3.19E2,2.15E2,2.35E2,1.73E2,1.379E3,2.86E2,3.8E2,1.28E2,8.39E2,7.26E2,4.8E2,5.64E2,5.06E2,5.9E1,3.6E1,1.8E1,2.16E2,1.03E2,1.55E2,6E1,2.02E2,3.3E1,2.6E1,1.47E2,1.338E3,4.1E1,2.74E2,1.2E1,1.7E1,3.63E2,1.2E1,1.16E2,3.81E2,4.58E2,4.3E1,6.83E2,4.15E2,6.5E1,5.2E2,4.4E1,4.27E2,7.9E1,2.7E1,3.2E1,3E0,3.3E1,5E0,1.3E1,7.3E1,1.43E2,6.9E1,3.4E1,2.6E1,1.29E2,6E0,5.4E1,1.96E2,6E0,1.9E1,1.4E1,1.5E1,1.1E1,2.8E1,1.19E2,6.43E2,6.95E2,1.2E1,2.9E1,1.94E2,8E1,1E1,2E0,6E0,1.1E1,1.08E2,2.55E2,6E0,6E0,1.1E1,1.05E2,3.77E2,4E0,4.3E2,2.8E1,1.3E1,3E1,3.53E2,3.3E2,1.6E1,3.99E2,6E1,5E0,5.17E2,3E0,1.1E1,3.3E1,4.06E2,2.1E1,2.6E1,5.3E1,1.5E1,1.2E1,2.7E1,5E0,2E0,1E0,8E0,2.5E1,1E0,4E0],"tree_param":{"num_deleted":"0","num_feature":"1292","num_nodes":"125","size_leaf_vector":"0"}},{"base_weights":[2.161681E1,1.9812769E1,2.4074247E1,1.8358698E1,2.1757776E1,2.2344688E1,2.9611776E1,2.4652767E1,1.7717056E1,2.0741367E1,2.8097652E1,2.4456108E1,1.932443E1,2.779297E1,4.6578777E1,3.066337E1,1.8574602E1,1.7589903E1,4.578048E1,1.2909847E1,2.1474033E1,4.1706947E1,2.420405E1,2.8310919E1,2.2149624E1,2.6652794E1,1.810166E1,3.5960094E1,2.5449621E1,3.1906471E1,5.3661133E1,2.3444168E1,4.1346333E1,2.127279E1,4.4671874E0,1.7443752E1,3.3754616E1,7.7808924E0,5.0097435E1,3.4892456E1,1.1628382E1,3.297126E1,2.0898998E1,2.2182104E1,5.0438904E1,2.2311699E1,5.9262115E1,3.284392E1,2.3872028E1,3.979701E1,2.1541592E1,3.5364754E1,1.9827246E1,1.718947E1,2.7311289E1,4.476117E1,2.7011993E1,3.5559452E1,2.340312E1,1.01241045E1,3.4812943E1,5.734263E1,2.3855804E1,2.1126455E1,5.0031105E1,4.95776E1,2.0066399E1,9.330692E0,2.3594242E1,-5.154451E0,1.3592472E1,2.2423843E1,1.7023273E1,4.1186264E1,9.167738E0,1.8809166E1,8.431194E0,5.4883934E1,2.5908237E1,3.7569958E1,2.053418E1,3.130176E1,5.9851503E0,1.4018045E1,5.53154E1,2.4153484E1,6.3378797E0,2.417866E1,3.6694424E1,3.0861572E1,1.9372368E1,1.956694E1,5.063059E1,2.39405E1,1.77945E1,4.704802E1,2.323711E1,4.1272526E0,2.30601E1,2.3595821E1,1.5989038E1,3.6699276E1,1.7948383E1,2.0749347E0,4.7669273E1,1.0754626E1,3.2545757E1,2.2715843E1,4.2883476E1,3.2047977E1,2.1471684E1,1.0033922E0,1.2829878E1,3.969149E1,2.0779512E1,6.1642395E1,3.8549675E1],"categories":[],"categories_nodes":[],"categories_segments":[],"categories_sizes":[],"default_left":[true,true,true,true,true,true,true,true,true,true,true,true,true,true,true,true,true,true,true,true,true,true,true,true,true,true,true,true,true,true,true,true,true,true,true,true,true,false,false,false,true,true,true,true,true,true,false,true,true,true,true,true,true,true,true,true,true,true,true,true,true,true,false,false,false,false,false,false,false,false,false,false,false,false,false,false,false,false,false,false,false,false,false,false,false,false,false,false,false,false,false,false,false,false,false,false,false,false,false,false,false,false,false,false,false,false,false,false,false,false,false,false,false,false,false,false,false],"id":11,"left_children":[1,3,5,7,9,11,13,15,17,19,21,23,25,27,29,31,33,35,37,39,41,43,45,47,49,51,53,55,57,59,61,63,65,67,69,71,73,-1,-1,-1,75,77,79,81,83,85,-1,87,89,91,93,95,97,99,101,103,105,107,109,111,113,115,-1,-1,-1,-1,-1,-1,-1,-1,-1,-1,-1,-1,-1,-1,-1,-1,-1,-1,-1,-1,-1,-1,-1,-1,-1,-1,-1,-1,-1,-1,-1,-1,-1,-1,-1,-1,-1,-1,-1,-1,-1,-1,-1,-1,-1,-1,-1,-1,-1,-1,-1,-1,-1,-1,-1],"loss_changes":[2.7648E4,9.963125E3,2.5015625E4,8.05625E3,9.4825625E3,1.25811875E4,1.8301312E4,6.4448594E3,6.017375E3,7.4689375E3,1.0277219E4,1.00510625E4,7.1074375E3,1.01085625E4,4.5227344E3,6.3573047E3,3.6352852E3,3.91175E3,9.225371E2,2.9183105E3,7.462625E3,6.723703E3,9.82325E3,8.1901562E3,7.2547188E3,6.3750234E3,5.654797E3,8.713781E3,8.498875E3,1.0403672E3,2.9114375E3,2.5786543E3,5.4861094E3,2.0531328E3,1.5626648E3,3.576E3,2.5459492E3,0E0,0E0,0E0,2.435707E3,7.3999336E3,6.3869375E3,2.1760244E3,4.730383E3,4.5835938E3,0E0,6.3864688E3,6.6043203E3,4.269254E3,6.162875E3,6.132957E3,3.4069746E3,4.7445312E3,4.966828E3,7.5975312E3,5.497668E3,5.9868125E3,5.623328E3,8.584091E1,4.7602148E2,3.7108594E2,0E0,0E0,0E0,0E0,0E0,0E0,0E0,0E0,0E0,0E0,0E0,0E0,0E0,0E0,0E0,0E0,0E0,0E0,0E0,0E0,0E0,0E0,0E0,0E0,0E0,0E0,0E0,0E0,0E0,0E0,0E0,0E0,0E0,0E0,0E0,0E0,0E0,0E0,0E0,0E0,0E0,0E0,0E0,0E0,0E0,0E0,0E0,0E0,0E0,0E0,0E0,0E0,0E0,0E0,0E0],"parents":[2147483647,0,0,1,1,2,2,3,3,4,4,5,5,6,6,7,7,8,8,9,9,10,10,11,11,12,12,13,13,14,14,15,15,16,16,17,17,18,18,19,19,20,20,21,21,22,22,23,23,24,24,25,25,26,26,27,27,28,28,29,29,30,30,31,31,32,32,33,33,34,34,35,35,36,36,40,40,41,41,42,42,43,43,44,44,45,45,47,47,48,48,49,49,50,50,51,51,52,52,53,53,54,54,55,55,56,56,57,57,58,58,59,59,60,60,61,61],"right_children":[2,4,6,8,10,12,14,16,18,20,22,24,26,28,30,32,34,36,38,40,42,44,46,48,50,52,54,56,58,60,62,64,66,68,70,72,74,-1,-1,-1,76,78,80,82,84,86,-1,88,90,92,94,96,98,100,102,104,106,108,110,112,114,116,-1,-1,-1,-1,-1,-1,-1,-1,-1,-1,-1,-1,-1,-1,-1,-1,-1,-1,-1,-1,-1,-1,-1,-1,-1,-1,-1,-1,-1,-1,-1,-1,-1,-1,-1,-1,-1,-1,-1,-1,-1,-1,-1,-1,-1,-1,-1,-1,-1,-1,-1,-1,-1,-1,-1],"split_conditions":[2.2639212E-1,7.312666E-2,3.8681245E-1,-5.7667173E-2,2.3202974E-1,2.7571845E-1,5.5795467E-1,2.423325E-1,7.519506E-1,-2.2849236E-2,-7.90444E-2,1.11928694E-1,5.7955988E-2,-3.487909E-2,2.5674278E-1,2.2113065E-1,2.7263176E-1,1.0470417E0,1.969061E-2,-2.1931488E-2,-2.1062624E-2,8.730221E-2,9.337929E-1,5.648293E-2,-1.0378392E-1,7.120606E-2,5.224637E-1,1.19797856E-1,1.4083944E-3,-6.717552E-2,2.7844074E-1,3.633018E-1,3.923607E-1,5.9961952E-2,1.7133702E-2,-7.9211205E-2,2.1975966E-1,3.890446E-1,2.5048718E0,1.7446228E0,4.037211E-2,4.6705585E-2,-2.5040204E-2,3.3801144E-1,4.661822E-2,2.6623046E-1,2.963106E0,2.1404471E-2,1.7950799E-1,1.782535E-1,2.0861721E-1,2.5539652E-2,4.050214E-2,-1.4892797E-2,1.2622884E-1,-1.3623303E-1,-6.636121E-2,1.2294795E-1,-1.2180522E-2,1.9563852E-1,2.5639313E-1,6.2459238E-2,1.1927903E0,1.0563228E0,2.5015552E0,2.47888E0,1.00332E0,4.665346E-1,1.1797122E0,-2.5772256E-1,6.796236E-1,1.1211922E0,8.511637E-1,2.0593133E0,4.583869E-1,9.404583E-1,4.2155972E-1,2.7441967E0,1.295412E0,1.878498E0,1.026709E0,1.565088E0,2.9925752E-1,7.009023E-1,2.76577E0,1.2076743E0,3.16894E-1,1.208933E0,1.8347212E0,1.5430787E0,9.686184E-1,9.78347E-1,2.5315294E0,1.1970251E0,8.89725E-1,2.352401E0,1.1618556E0,2.0636263E-1,1.153005E0,1.1797911E0,7.9945195E-1,1.8349638E0,8.9741915E-1,1.03746735E-1,2.3834636E0,5.3773135E-1,1.6272879E0,1.1357921E0,2.1441739E0,1.6023989E0,1.0735842E0,5.0169613E-2,6.414939E-1,1.9845746E0,1.0389756E0,3.0821197E0,1.9274838E0],"split_indices":[637,324,224,454,426,1188,417,990,466,325,901,176,79,920,668,804,263,936,21,91,1255,472,1197,34,92,1057,1252,1217,278,517,409,1167,1108,813,938,156,543,0,0,0,683,934,1014,35,1011,580,0,520,511,601,392,769,1104,943,383,1102,667,1080,239,13,469,702,0,0,0,0,0,0,0,0,0,0,0,0,0,0,0,0,0,0,0,0,0,0,0,0,0,0,0,0,0,0,0,0,0,0,0,0,0,0,0,0,0,0,0,0,0,0,0,0,0,0,0,0,0,0,0],"split_type":[0,0,0,0,0,0,0,0,0,0,0,0,0,0,0,0,0,0,0,0,0,0,0,0,0,0,0,0,0,0,0,0,0,0,0,0,0,0,0,0,0,0,0,0,0,0,0,0,0,0,0,0,0,0,0,0,0,0,0,0,0,0,0,0,0,0,0,0,0,0,0,0,0,0,0,0,0,0,0,0,0,0,0,0,0,0,0,0,0,0,0,0,0,0,0,0,0,0,0,0,0,0,0,0,0,0,0,0,0,0,0,0,0,0,0,0,0],"sum_hessian":[6.343E3,3.663E3,2.68E3,2.102E3,1.561E3,2.046E3,6.34E2,1.91E2,1.911E3,1.349E3,2.12E2,1.2E3,8.46E2,5.75E2,5.9E1,9.4E1,9.7E1,1.904E3,7E0,1.17E2,1.232E3,4.5E1,1.67E2,4.45E2,7.55E2,1.18E2,7.28E2,1.25E2,4.5E2,2.1E1,3.8E1,5.8E1,3.6E1,8.1E1,1.6E1,1.889E3,1.5E1,1E0,6E0,5E0,1.12E2,5.6E1,1.176E3,1.5E1,3E1,1.6E2,7E0,2.17E2,2.28E2,2.3E1,7.32E2,5E1,6.8E1,6.65E2,6.3E1,6.1E1,6.4E1,7.3E1,3.77E2,3E0,1.8E1,3.3E1,5E0,5.5E1,3E0,2.5E1,1.1E1,1.4E1,6.7E1,8E0,8E0,1.43E2,1.746E3,1.1E1,4E0,3.3E1,7.9E1,1.2E1,4.4E1,2.3E1,1.153E3,9E0,6E0,4E0,2.6E1,1.43E2,1.7E1,6.9E1,1.48E2,8.7E1,1.41E2,9E0,1.4E1,4.43E2,2.89E2,2.4E1,2.6E1,1.2E1,5.6E1,1.02E2,5.63E2,3E1,3.3E1,4E0,5.7E1,1.7E1,4.7E1,2.8E1,4.5E1,6.6E1,3.11E2,1E0,2E0,1.2E1,6E0,2.5E1,8E0],"tree_param":{"num_deleted":"0","num_feature":"1292","num_nodes":"117","size_leaf_vector":"0"}},{"base_weights":[2.0548206E1,1.9604792E1,2.507765E1,2.1481344E1,1.783591E1,2.2071398E1,3.221078E1,1.9434772E1,2.4302588E1,1.6521152E1,2.0441362E1,1.8919415E1,2.716636E1,3.6144424E1,2.171283E1,2.1481356E1,1.667754E1,2.3196459E1,3.291021E1,1.9597927E1,1.5699025E1,1.9436028E1,2.9329262E1,1.8097267E1,3.897009E1,3.7901295E1,2.4047573E1,2.1449364E1,4.02705E1,2.7200377E1,1.31171465E1,2.5810123E1,1.9305805E1,3.838943E1,1.6304064E1,2.5543276E1,1.9204329E1,3.7012604E1,1.7560843E1,3.2963852E1,1.8716892E1,3.661606E1,1.5526058E1,2.0235474E1,1.00448265E1,3.7381878E1,1.9658216E1,1.7464836E1,3.859702E1,4.9964108E1,1.4556045E1,4.2212624E1,1.57011595E1,3.05816E1,1.8836418E1,1.5630053E1,4.2247635E1,4.557172E1,3.128899E1,3.690042E1,1.756584E1,1.6851818E1,-2.527521E0,3.565382E1,2.3462166E1,1.7315155E1,2.4531935E1,4.4163628E1,1.0195096E1,2.7855362E1,1.5696285E1,3.2819798E1,2.3310904E1,1.8063702E1,3.4883633E1,4.4257298E1,2.5362194E1,1.1788846E1,4.059986E1,7.604985E0,3.997499E1,1.5478004E1,2.1137535E1,4.468585E1,2.0133336E-1,2.1249113E1,1.5005843E1,2.537822E1,1.8386168E1,6.3373876E0,1.8255066E1,4.711559E1,2.0045397E1,9.859588E0,2.7750086E1,1.6073687E1,2.4099266E1,4.392872E1,1.5618514E1,5.2682964E1,1.0028345E1,4.104565E0,1.7915722E1,4.5109303E1,5.382623E0,1.8983833E1,7.308648E0,2.5536873E1,4.327524E1,1.4682007E1,2.8881775E1,3.335437E1,1.1257147E1,1.5025204E1,5.0577896E1,4.7779507E1,1.8495121E1,2.5486557E1,5.2678246E1,5.254168E1,2.958096E1,2.8975653E1,1.003564E1,2.9471245E1,1.2468994E1,4.1621137E0,-1.0257684E1],"categories":[],"categories_nodes":[],"categories_segments":[],"categories_sizes":[],"default_left":[true,true,true,true,true,true,true,true,true,true,true,true,true,true,true,true,true,true,true,true,true,true,true,true,true,true,true,true,true,true,true,true,true,true,true,true,true,true,true,true,true,true,true,true,true,true,true,true,true,true,true,true,true,true,true,true,true,true,true,true,true,true,true,false,false,false,false,false,false,false,false,false,false,false,false,false,false,false,false,false,false,false,false,false,false,false,false,false,false,false,false,false,false,false,false,false,false,false,false,false,false,false,false,false,false,false,false,false,false,false,false,false,false,false,false,false,false,false,false,false,false,false,false,false,false,false,false],"id":12,"left_children":[1,3,5,7,9,11,13,15,17,19,21,23,25,27,29,31,33,35,37,39,41,43,45,47,49,51,53,55,57,59,61,63,65,67,69,71,73,75,77,79,81,83,85,87,89,91,93,95,97,99,101,103,105,107,109,111,113,115,117,119,121,123,125,-1,-1,-1,-1,-1,-1,-1,-1,-1,-1,-1,-1,-1,-1,-1,-1,-1,-1,-1,-1,-1,-1,-1,-1,-1,-1,-1,-1,-1,-1,-1,-1,-1,-1,-1,-1,-1,-1,-1,-1,-1,-1,-1,-1,-1,-1,-1,-1,-1,-1,-1,-1,-1,-1,-1,-1,-1,-1,-1,-1,-1,-1,-1,-1],"loss_changes":[2.6617E4,1.7060375E4,2.2663062E4,1.4222125E4,8.9489375E3,1.1851625E4,1.2470969E4,7.9931875E3,9.386125E3,4.2631562E3,7.5164062E3,7.1908594E3,8.864719E3,1.32030625E4,3.8884375E3,7.4689062E3,4.5232344E3,8.391094E3,6.8433594E3,3.8225156E3,4.6088125E3,5.9230625E3,6.2740938E3,5.3155938E3,4.1040703E3,5.462789E3,7.2213594E3,5.75434E3,7.1444375E3,4.3984062E3,2.204418E3,5.6350156E3,5.473953E3,1.1777441E3,3.9576875E3,8.8838125E3,5.718758E3,6.7270703E3,3.1118662E3,3.6074727E3,2.4639375E3,3.223455E3,3.91175E3,6.6757812E3,1.8932817E3,7.155461E3,3.135834E3,3.7659062E3,9.0658594E2,7.746328E2,1.7225903E2,5.4114844E3,1.9185254E2,5.2984844E3,5.0011875E3,2.9573174E3,1.7345273E3,5.7518125E3,7.3450938E3,1.4223945E3,2.2008389E3,1.2917861E3,4.5638934E2,0E0,0E0,0E0,0E0,0E0,0E0,0E0,0E0,0E0,0E0,0E0,0E0,0E0,0E0,0E0,0E0,0E0,0E0,0E0,0E0,0E0,0E0,0E0,0E0,0E0,0E0,0E0,0E0,0E0,0E0,0E0,0E0,0E0,0E0,0E0,0E0,0E0,0E0,0E0,0E0,0E0,0E0,0E0,0E0,0E0,0E0,0E0,0E0,0E0,0E0,0E0,0E0,0E0,0E0,0E0,0E0,0E0,0E0,0E0,0E0,0E0,0E0,0E0,0E0],"parents":[2147483647,0,0,1,1,2,2,3,3,4,4,5,5,6,6,7,7,8,8,9,9,10,10,11,11,12,12,13,13,14,14,15,15,16,16,17,17,18,18,19,19,20,20,21,21,22,22,23,23,24,24,25,25,26,26,27,27,28,28,29,29,30,30,31,31,32,32,33,33,34,34,35,35,36,36,37,37,38,38,39,39,40,40,41,41,42,42,43,43,44,44,45,45,46,46,47,47,48,48,49,49,50,50,51,51,52,52,53,53,54,54,55,55,56,56,57,57,58,58,59,59,60,60,61,61,62,62],"right_children":[2,4,6,8,10,12,14,16,18,20,22,24,26,28,30,32,34,36,38,40,42,44,46,48,50,52,54,56,58,60,62,64,66,68,70,72,74,76,78,80,82,84,86,88,90,92,94,96,98,100,102,104,106,108,110,112,114,116,118,120,122,124,126,-1,-1,-1,-1,-1,-1,-1,-1,-1,-1,-1,-1,-1,-1,-1,-1,-1,-1,-1,-1,-1,-1,-1,-1,-1,-1,-1,-1,-1,-1,-1,-1,-1,-1,-1,-1,-1,-1,-1,-1,-1,-1,-1,-1,-1,-1,-1,-1,-1,-1,-1,-1,-1,-1,-1,-1,-1,-1,-1,-1,-1,-1,-1,-1],"split_conditions":[3.7439203E-1,1.3467214E-1,2.8288242E-1,3.223455E-1,5.4363467E-2,2.8952843E-1,2.5760585E-1,2.3979124E-1,3.9897394E-1,-7.879799E-2,3.6782563E-1,5.631002E-1,-2.9561816E-2,9.495385E-2,6.1641116E-2,1.6066741E-2,-1.0543249E-1,2.7157718E-1,4.615575E-1,-8.411062E-2,-1.5721425E-1,4.735508E-1,1.3691545E-1,8.6626923E-1,8.888337E-2,4.560331E-1,9.315288E-2,2.2127765E-1,2.325106E-1,8.848029E-2,2.1616015E-1,-2.1443177E-2,2.2142832E-1,2.0783836E-1,-1.2916099E-1,-1.4217425E-2,4.3412012E-1,3.1288874E-1,3.390382E-1,-1.3075918E-2,1.2707785E-1,2.0628974E-1,7.862062E-3,-2.4353521E-2,1.5071028E-1,1.9860561E-1,1.2744483E-1,4.5923632E-1,2.5357395E-1,2.1871781E-1,1.7996895E-1,2.0272696E-1,2.8061843E-1,3.510842E-1,2.2428283E-1,1.8355107E-1,1.8584264E-2,4.3175644E-1,4.8237896E-1,4.2741597E-2,1.5510467E-1,1.7447527E-1,2.1184629E-1,1.782691E0,1.1731083E0,8.6575776E-1,1.2265967E0,2.2081814E0,5.0975484E-1,1.3927681E0,7.848143E-1,1.6409899E0,1.1655452E0,9.0318507E-1,1.7441816E0,2.2128649E0,1.2681097E0,5.894423E-1,2.029993E0,3.8024926E-1,1.9987496E0,7.739002E-1,1.0568768E0,2.2342925E0,1.00666685E-2,1.0624557E0,7.502922E-1,1.268911E0,9.1930836E-1,3.1686938E-1,9.127533E-1,2.3557794E0,1.0022699E0,4.9297938E-1,1.3875043E0,8.0368435E-1,1.2049633E0,2.196436E0,7.809257E-1,2.6341484E0,5.014173E-1,2.0522825E-1,8.957861E-1,2.2554653E0,2.6913115E-1,9.491917E-1,3.654324E-1,1.2768437E0,2.163762E0,7.3410034E-1,1.4440888E0,1.6677185E0,5.6285733E-1,7.512602E-1,2.528895E0,2.3889754E0,9.2475605E-1,1.2743279E0,2.6339123E0,2.627084E0,1.479048E0,1.4487827E0,5.01782E-1,1.4735622E0,6.2344974E-1,2.0810568E-1,-5.128842E-1],"split_indices":[395,821,668,879,426,1063,1188,346,561,1237,399,29,821,1095,1118,802,913,779,1032,834,837,215,594,472,901,921,874,368,1014,205,767,629,1192,58,784,1282,924,1079,67,802,768,19,1047,522,36,485,1060,914,46,24,23,235,215,898,1195,1278,221,575,229,229,1121,155,40,0,0,0,0,0,0,0,0,0,0,0,0,0,0,0,0,0,0,0,0,0,0,0,0,0,0,0,0,0,0,0,0,0,0,0,0,0,0,0,0,0,0,0,0,0,0,0,0,0,0,0,0,0,0,0,0,0,0,0,0,0,0,0,0],"split_type":[0,0,0,0,0,0,0,0,0,0,0,0,0,0,0,0,0,0,0,0,0,0,0,0,0,0,0,0,0,0,0,0,0,0,0,0,0,0,0,0,0,0,0,0,0,0,0,0,0,0,0,0,0,0,0,0,0,0,0,0,0,0,0,0,0,0,0,0,0,0,0,0,0,0,0,0,0,0,0,0,0,0,0,0,0,0,0,0,0,0,0,0,0,0,0,0,0,0,0,0,0,0,0,0,0,0,0,0,0,0,0,0,0,0,0,0,0,0,0,0,0,0,0,0,0,0,0],"sum_hessian":[6.343E3,5.254E3,1.089E3,2.544E3,2.71E3,7.69E2,3.2E2,1.479E3,1.065E3,1.806E3,9.04E2,4.78E2,2.91E2,2.31E2,8.9E1,8.45E2,6.34E2,9.47E2,1.18E2,3.76E2,1.43E3,8.15E2,8.9E1,4.61E2,1.7E1,6.3E1,2.28E2,5.2E1,1.79E2,5.3E1,3.6E1,2.79E2,5.66E2,9E0,6.25E2,5.93E2,3.54E2,9.2E1,2.6E1,2.1E1,3.55E2,1E1,1.42E3,7.5E2,6.5E1,4.7E1,4.2E1,4.49E2,1.2E1,1.1E1,6E0,5.2E1,1.1E1,9.9E1,1.29E2,4.2E1,1E1,1.1E2,6.9E1,2.5E1,2.8E1,2.9E1,7E0,5.1E1,2.28E2,4.13E2,1.53E2,7E0,2E0,2.9E1,5.96E2,1.36E2,4.57E2,3.32E2,2.2E1,5.5E1,3.7E1,2.2E1,4E0,5E0,1.6E1,1.55E2,2E2,8E0,2E0,1.15E2,1.305E3,1.95E2,5.55E2,4.6E1,1.9E1,2.9E1,1.8E1,2E1,2.2E1,3.74E2,7.5E1,9E0,3E0,1E1,1E0,2E0,4E0,4.8E1,4E0,7E0,4E0,7.3E1,2.6E1,9.3E1,3.6E1,7E0,3.5E1,3E0,7E0,1.01E2,9E0,5.6E1,1.3E1,6E0,1.9E1,1E1,1.8E1,6E0,2.3E1,4E0,3E0],"tree_param":{"num_deleted":"0","num_feature":"1292","num_nodes":"127","size_leaf_vector":"0"}},{"base_weights":[1.9533041E1,2.2219995E1,1.8062075E1,2.0967304E1,2.9836918E1,1.7632051E1,2.4485464E1,1.9049263E1,2.4355206E1,2.3388329E1,3.9147926E1,1.6856497E1,2.0522917E1,2.8503048E1,1.7647512E1,2.6546356E1,1.818108E1,2.0105093E1,2.8462872E1,2.0698364E1,4.178596E1,4.3123768E1,1.2676222E1,1.6759495E1,4.206127E1,1.9141085E1,2.8385986E1,1.3661259E1,3.1301733E1,1.3457675E1,2.6556225E1,1.9724314E1,3.3721867E1,3.6693678E0,1.848476E1,3.7475964E1,1.8974255E1,1.610138E1,3.0762676E1,1.6326586E1,2.9711279E1,1.1335066E1,4.961482E1,3.0910347E1,5.050088E1,2.1921555E1,-9.468035E0,1.8664028E1,1.565144E1,7.3646564E0,4.8953335E1,1.8353653E1,3.3397903E1,4.2471615E1,2.225207E1,2.1752678E1,5.737946E0,3.264262E1,-2.5208309E0,9.343397E0,1.8357647E1,3.5728844E1,1.1812885E1,3.813879E1,1.6581015E1,2.4110138E1,4.536373E1,6.133812E0,-1.0186306E1,2.4324121E1,1.764518E1,1.2496039E1,4.293994E1,1.3329848E1,2.1496225E1,-2.23673E0,1.871345E1,2.0349962E1,3.368763E1,1.8836119E1,3.5899725E0,4.350677E1,1.6794085E1,1.4169664E0,1.3035293E1,5.795704E1,2.8226042E1,1.2792375E1,4.0806606E1,5.244104E1,6.833137E0,1.31945305E1,3.3245884E1,-1.3241541E1,-1.2806832E0,1.6494583E1,2.0811531E1,1.11958475E1,1.6286215E1,1.7919998E1,4.0205433E1,1.5752892E1,4.1919086E1,1.8491657E1,5.006115E1,2.9100828E1,1.5208888E1,2.7174889E1,1.0897615E1,9.1946945E0,-9.7962695E-1,3.7757103E1,2.4441507E1,-8.3815365E0,2.5049062E0,2.459987E0,1.2690488E1,2.626255E1,1.2398885E1,4.7504498E1,2.1557873E1,1.5152209E1,-4.3689322E0],"categories":[],"categories_nodes":[],"categories_segments":[],"categories_sizes":[],"default_left":[true,true,true,true,true,true,true,true,true,true,true,true,true,true,true,true,true,true,true,true,true,true,true,true,true,true,true,true,true,true,true,true,true,true,true,true,true,true,true,true,true,true,true,true,true,true,true,true,true,false,false,true,true,true,true,true,true,true,true,true,true,true,true,false,false,false,false,false,false,false,false,false,false,false,false,false,false,false,false,false,false,false,false,false,false,false,false,false,false,false,false,false,false,false,false,false,false,false,false,false,false,false,false,false,false,false,false,false,false,false,false,false,false,false,false,false,false,false,false,false,false,false,false],"id":13,"left_children":[1,3,5,7,9,11,13,15,17,19,21,23,25,27,29,31,33,35,37,39,41,43,45,47,49,51,53,55,57,59,61,63,65,67,69,71,73,75,77,79,81,83,85,87,89,91,93,95,97,-1,-1,99,101,103,105,107,109,111,113,115,117,119,121,-1,-1,-1,-1,-1,-1,-1,-1,-1,-1,-1,-1,-1,-1,-1,-1,-1,-1,-1,-1,-1,-1,-1,-1,-1,-1,-1,-1,-1,-1,-1,-1,-1,-1,-1,-1,-1,-1,-1,-1,-1,-1,-1,-1,-1,-1,-1,-1,-1,-1,-1,-1,-1,-1,-1,-1,-1,-1,-1,-1],"loss_changes":[2.467275E4,2.0747625E4,1.0907125E4,1.20579375E4,1.7937875E4,8.288125E3,6.5023594E3,7.5558125E3,1.1526156E4,8.439031E3,1.2819766E4,6.7324375E3,8.2576875E3,6.1768516E3,3.2632402E3,5.5027656E3,4.8238438E3,6.0463438E3,9.454844E3,6.0557266E3,4.920711E3,8.349969E3,3.8927126E3,6.106375E3,2.2699219E3,7.1556094E3,9.336523E3,1.6061772E3,6.114125E3,1.1993477E3,3.6349922E3,3.2457266E3,5.6201797E3,8.819977E2,4.8999688E3,2.1932168E3,4.339836E3,2.7721816E3,8.268719E3,3.5761543E3,8.713891E3,8.270752E1,1.5758398E3,7.3671914E3,5.3180625E3,8.460962E2,1.6841193E2,4.8280625E3,5.2564688E3,0E0,0E0,5.5148125E3,4.602125E3,5.444168E3,3.6575586E3,4.6901855E2,3.573218E2,4.446047E3,1.9772115E2,8.6731836E2,1.0874766E3,1.9796094E3,7.6867126E2,0E0,0E0,0E0,0E0,0E0,0E0,0E0,0E0,0E0,0E0,0E0,0E0,0E0,0E0,0E0,0E0,0E0,0E0,0E0,0E0,0E0,0E0,0E0,0E0,0E0,0E0,0E0,0E0,0E0,0E0,0E0,0E0,0E0,0E0,0E0,0E0,0E0,0E0,0E0,0E0,0E0,0E0,0E0,0E0,0E0,0E0,0E0,0E0,0E0,0E0,0E0,0E0,0E0,0E0,0E0,0E0,0E0,0E0,0E0,0E0],"parents":[2147483647,0,0,1,1,2,2,3,3,4,4,5,5,6,6,7,